<?xml version="1.0"?>
<opencv_storage>
<cascade>
  <stageType>BOOST</stageType>
  <featureType>HAAR</featureType>
  <height>24</height>
  <width>24</width>
  <stageParams>
    <boostType>GAB</boostType>
    <minHitRate>9.9500000476837158e-01</minHitRate>
    <maxFalseAlarm>5.0000000000000000e-01</maxFalseAlarm>
    <weightTrimRate>9.4999998807907104e-01</weightTrimRate>
    <maxDepth>1</maxDepth>
    <maxWeakCount>100</maxWeakCount></stageParams>
  <featureParams>
    <maxCatCount>0</maxCatCount>
    <featSize>1</featSize>
    <mode>BASIC</mode></featureParams>
  <stageNum>18</stageNum>
  <stages>
    <!-- stage 0 -->
    <_>
      <maxWeakCount>2</maxWeakCount>
      <stageThreshold>-6.2819045782089233e-01</stageThreshold>
      <weakClassifiers>
        <_>
          <internalNodes>
            0 -1 25 -1.1717834323644638e-01</internalNodes>
          <leafValues>
            4.2857143282890320e-01 -9.1515153646469116e-01</leafValues></_>
        <_>
          <internalNodes>
            0 -1 34 6.5525472164154053e-03</internalNodes>
          <leafValues>
            -9.3530976772308350e-01 2.8696101903915405e-01</leafValues></_></weakClassifiers></_>
    <!-- stage 1 -->
    <_>
      <maxWeakCount>2</maxWeakCount>
      <stageThreshold>-5.5744421482086182e-01</stageThreshold>
      <weakClassifiers>
        <_>
          <internalNodes>
            0 -1 13 -7.7051579952239990e-02</internalNodes>
          <leafValues>
            1. -8.4269660711288452e-01</leafValues></_>
        <_>
          <internalNodes>
            0 -1 22 1.9149695290252566e-03</internalNodes>
          <leafValues>
            -1. 2.8525242209434509e-01</leafValues></_></weakClassifiers></_>
    <!-- stage 2 -->
    <_>
      <maxWeakCount>3</maxWeakCount>
      <stageThreshold>-1.1538505554199219e+00</stageThreshold>
      <weakClassifiers>
        <_>
          <internalNodes>
            0 -1 44 4.7504100948572159e-02</internalNodes>
          <leafValues>
            -8.7283235788345337e-01 6.9230771064758301e-01</leafValues></_>
        <_>
          <internalNodes>
            0 -1 11 2.9477857053279877e-02</internalNodes>
          <leafValues>
            -6.6512548923492432e-01 8.2797050476074219e-01</leafValues></_>
        <_>
          <internalNodes>
            0 -1 46 -5.5117788724601269e-04</internalNodes>
          <leafValues>
            -1. 3.8410732150077820e-01</leafValues></_></weakClassifiers></_>
    <!-- stage 3 -->
    <_>
      <maxWeakCount>3</maxWeakCount>
      <stageThreshold>-1.2777274847030640e+00</stageThreshold>
      <weakClassifiers>
        <_>
          <internalNodes>
            0 -1 42 -1.9693188369274139e-02</internalNodes>
          <leafValues>
            8.1818181276321411e-01 -8.6285716295242310e-01</leafValues></_>
        <_>
          <internalNodes>
            0 -1 18 -6.9455012679100037e-02</internalNodes>
          <leafValues>
            5.3560864925384521e-01 -8.1717967987060547e-01</leafValues></_>
        <_>
          <internalNodes>
            0 -1 23 -5.7291815755888820e-04</internalNodes>
          <leafValues>
            4.0230938792228699e-01 -8.3062469959259033e-01</leafValues></_></weakClassifiers></_>
    <!-- stage 4 -->
    <_>
      <maxWeakCount>2</maxWeakCount>
      <stageThreshold>-6.2969344854354858e-01</stageThreshold>
      <weakClassifiers>
        <_>
          <internalNodes>
            0 -1 38 -4.2755872011184692e-02</internalNodes>
          <leafValues>
            1. -8.4269660711288452e-01</leafValues></_>
        <_>
          <internalNodes>
            0 -1 8 2.8504371643066406e-02</internalNodes>
          <leafValues>
            -1. 2.1300315856933594e-01</leafValues></_></weakClassifiers></_>
    <!-- stage 5 -->
    <_>
      <maxWeakCount>2</maxWeakCount>
      <stageThreshold>-5.6784093379974365e-01</stageThreshold>
      <weakClassifiers>
        <_>
          <internalNodes>
            0 -1 9 -1.3226354494690895e-02</internalNodes>
          <leafValues>
            6.6666668653488159e-01 -8.6206895112991333e-01</leafValues></_>
        <_>
          <internalNodes>
            0 -1 12 7.5568311149254441e-04</internalNodes>
          <leafValues>
            2.9422804713249207e-01 -9.6306139230728149e-01</leafValues></_></weakClassifiers></_>
    <!-- stage 6 -->
    <_>
      <maxWeakCount>3</maxWeakCount>
      <stageThreshold>-1.2723138332366943e+00</stageThreshold>
      <weakClassifiers>
        <_>
          <internalNodes>
            0 -1 27 6.6080123186111450e-02</internalNodes>
          <leafValues>
            -8.5310733318328857e-01 1.</leafValues></_>
        <_>
          <internalNodes>
            0 -1 26 3.6890100687742233e-02</internalNodes>
          <leafValues>
            -8.5410642623901367e-01 4.3254894018173218e-01</leafValues></_>
        <_>
          <internalNodes>
            0 -1 14 -5.9267005417495966e-04</internalNodes>
          <leafValues>
            -1. 4.3489989638328552e-01</leafValues></_></weakClassifiers></_>
    <!-- stage 7 -->
    <_>
      <maxWeakCount>3</maxWeakCount>
      <stageThreshold>-8.9774852991104126e-01</stageThreshold>
      <weakClassifiers>
        <_>
          <internalNodes>
            0 -1 6 -2.8597706556320190e-01</internalNodes>
          <leafValues>
            1. -8.6363637447357178e-01</leafValues></_>
        <_>
          <internalNodes>
            0 -1 2 4.3825969099998474e-02</internalNodes>
          <leafValues>
            -7.4646741151809692e-01 6.6668105125427246e-01</leafValues></_>
        <_>
          <internalNodes>
            0 -1 39 -3.8845967501401901e-02</internalNodes>
          <leafValues>
            7.1235519647598267e-01 -6.5862244367599487e-01</leafValues></_></weakClassifiers></_>
    <!-- stage 8 -->
    <_>
      <maxWeakCount>2</maxWeakCount>
      <stageThreshold>-7.3987501859664917e-01</stageThreshold>
      <weakClassifiers>
        <_>
          <internalNodes>
            0 -1 28 -1.5120338648557663e-02</internalNodes>
          <leafValues>
            5.0000000000000000e-01 -8.5057473182678223e-01</leafValues></_>
        <_>
          <internalNodes>
            0 -1 37 -1.0188754822593182e-04</internalNodes>
          <leafValues>
            1.1069969832897186e-01 -9.4856363534927368e-01</leafValues></_></weakClassifiers></_>
    <!-- stage 9 -->
    <_>
      <maxWeakCount>3</maxWeakCount>
      <stageThreshold>-1.1353664398193359e+00</stageThreshold>
      <weakClassifiers>
        <_>
          <internalNodes>
            0 -1 21 -2.2596322000026703e-02</internalNodes>
          <leafValues>
            6.0000002384185791e-01 -8.4090906381607056e-01</leafValues></_>
        <_>
          <internalNodes>
            0 -1 5 1.4919441193342209e-02</internalNodes>
          <leafValues>
            -6.3855242729187012e-01 5.6871783733367920e-01</leafValues></_>
        <_>
          <internalNodes>
            0 -1 3 -6.4860295969992876e-04</internalNodes>
          <leafValues>
            -9.7692418098449707e-01 3.4409508109092712e-01</leafValues></_></weakClassifiers></_>
    <!-- stage 10 -->
    <_>
      <maxWeakCount>3</maxWeakCount>
      <stageThreshold>-1.3622112274169922e+00</stageThreshold>
      <weakClassifiers>
        <_>
          <internalNodes>
            0 -1 30 2.3434807360172272e-01</internalNodes>
          <leafValues>
            -8.4269660711288452e-01 1.</leafValues></_>
        <_>
          <internalNodes>
            0 -1 33 1.7984835430979729e-02</internalNodes>
          <leafValues>
            -8.4108972549438477e-01 2.4808306992053986e-01</leafValues></_>
        <_>
          <internalNodes>
            0 -1 36 6.3880777452141047e-04</internalNodes>
          <leafValues>
            3.2157516479492188e-01 -1.</leafValues></_></weakClassifiers></_>
    <!-- stage 11 -->
    <_>
      <maxWeakCount>2</maxWeakCount>
      <stageThreshold>-6.2883001565933228e-01</stageThreshold>
      <weakClassifiers>
        <_>
          <internalNodes>
            0 -1 19 7.7470578253269196e-02</internalNodes>
          <leafValues>
            -8.5057473182678223e-01 5.0000000000000000e-01</leafValues></_>
        <_>
          <internalNodes>
            0 -1 20 -1.1338628828525543e-03</internalNodes>
          <leafValues>
            2.2174471616744995e-01 -8.9134514331817627e-01</leafValues></_></weakClassifiers></_>
    <!-- stage 12 -->
    <_>
      <maxWeakCount>2</maxWeakCount>
      <stageThreshold>-6.9609576463699341e-01</stageThreshold>
      <weakClassifiers>
        <_>
          <internalNodes>
            0 -1 40 3.3084891736507416e-02</internalNodes>
          <leafValues>
            -8.5142856836318970e-01 6.3636362552642822e-01</leafValues></_>
        <_>
          <internalNodes>
            0 -1 16 2.9380322666838765e-04</internalNodes>
          <leafValues>
            -9.7798931598663330e-01 1.5533280372619629e-01</leafValues></_></weakClassifiers></_>
    <!-- stage 13 -->
    <_>
      <maxWeakCount>2</maxWeakCount>
      <stageThreshold>-7.9044014215469360e-01</stageThreshold>
      <weakClassifiers>
        <_>
          <internalNodes>
            0 -1 35 3.1777217984199524e-02</internalNodes>
          <leafValues>
            -8.4090906381607056e-01 6.0000002384185791e-01</leafValues></_>
        <_>
          <internalNodes>
            0 -1 1 -5.9616009821183980e-05</internalNodes>
          <leafValues>
            -1. 5.0468962639570236e-02</leafValues></_></weakClassifiers></_>
    <!-- stage 14 -->
    <_>
      <maxWeakCount>3</maxWeakCount>
      <stageThreshold>-1.1838569641113281e+00</stageThreshold>
      <weakClassifiers>
        <_>
          <internalNodes>
            0 -1 7 -3.2340370118618011e-02</internalNodes>
          <leafValues>
            5.0000000000000000e-01 -8.5057473182678223e-01</leafValues></_>
        <_>
          <internalNodes>
            0 -1 17 -2.8107823804020882e-02</internalNodes>
          <leafValues>
            5.1626950502395630e-01 -6.9699645042419434e-01</leafValues></_>
        <_>
          <internalNodes>
            0 -1 29 3.7215169868431985e-05</internalNodes>
          <leafValues>
            -8.4955179691314697e-01 3.9981469511985779e-01</leafValues></_></weakClassifiers></_>
    <!-- stage 15 -->
    <_>
      <maxWeakCount>3</maxWeakCount>
      <stageThreshold>-1.2139527797698975e+00</stageThreshold>
      <weakClassifiers>
        <_>
          <internalNodes>
            0 -1 41 -4.6711072325706482e-02</internalNodes>
          <leafValues>
            1. -8.3240222930908203e-01</leafValues></_>
        <_>
          <internalNodes>
            0 -1 24 5.1900302059948444e-03</internalNodes>
          <leafValues>
            -7.3433768749237061e-01 3.8191658258438110e-01</leafValues></_>
        <_>
          <internalNodes>
            0 -1 43 -8.4435590542852879e-04</internalNodes>
          <leafValues>
            -1. 3.5278713703155518e-01</leafValues></_></weakClassifiers></_>
    <!-- stage 16 -->
    <_>
      <maxWeakCount>3</maxWeakCount>
      <stageThreshold>-9.6246731281280518e-01</stageThreshold>
      <weakClassifiers>
        <_>
          <internalNodes>
            0 -1 31 6.7953951656818390e-02</internalNodes>
          <leafValues>
            -8.2222223281860352e-01 1.</leafValues></_>
        <_>
          <internalNodes>
            0 -1 4 1.1147733032703400e-01</internalNodes>
          <leafValues>
            -5.8868020772933960e-01 8.2388573884963989e-01</leafValues></_>
        <_>
          <internalNodes>
            0 -1 15 7.2777312016114593e-04</internalNodes>
          <leafValues>
            4.4843509793281555e-01 -9.2704343795776367e-01</leafValues></_></weakClassifiers></_>
    <!-- stage 17 -->
    <_>
      <maxWeakCount>4</maxWeakCount>
      <stageThreshold>-7.9521816968917847e-01</stageThreshold>
      <weakClassifiers>
        <_>
          <internalNodes>
            0 -1 45 3.8755913265049458e-03</internalNodes>
          <leafValues>
            -8.4971100091934204e-01 3.8461539149284363e-01</leafValues></_>
        <_>
          <internalNodes>
            0 -1 32 3.0070943757891655e-03</internalNodes>
          <leafValues>
            -7.9801410436630249e-01 1.9546638429164886e-01</leafValues></_>
        <_>
          <internalNodes>
            0 -1 10 -3.6539958091452718e-04</internalNodes>
          <leafValues>
            4.6228960156440735e-01 -7.0999199151992798e-01</leafValues></_>
        <_>
          <internalNodes>
            0 -1 0 -2.8283307328820229e-02</internalNodes>
          <leafValues>
            7.1787893772125244e-01 -6.0326319932937622e-01</leafValues></_></weakClassifiers></_></stages>
  <features>
    <_>
      <rects>
        <_>
          0 13 19 9 -1.</_>
        <_>
          0 16 19 3 3.</_></rects>
      <tilted>0</tilted></_>
    <_>
      <rects>
        <_>
          0 15 1 9 -1.</_>
        <_>
          0 18 1 3 3.</_></rects>
      <tilted>0</tilted></_>
    <_>
      <rects>
        <_>
          0 21 24 2 -1.</_>
        <_>
          8 21 8 2 3.</_></rects>
      <tilted>0</tilted></_>
    <_>
      <rects>
        <_>
          1 0 6 6 -1.</_>
        <_>
          1 0 3 3 2.</_>
        <_>
          4 3 3 3 2.</_></rects>
      <tilted>0</tilted></_>
    <_>
      <rects>
        <_>
          1 6 15 10 -1.</_>
        <_>
          6 6 5 10 3.</_></rects>
      <tilted>0</tilted></_>
    <_>
      <rects>
        <_>
          1 7 15 2 -1.</_>
        <_>
          6 7 5 2 3.</_></rects>
      <tilted>0</tilted></_>
    <_>
      <rects>
        <_>
          1 8 21 15 -1.</_>
        <_>
          8 8 7 15 3.</_></rects>
      <tilted>0</tilted></_>
    <_>
      <rects>
        <_>
          1 13 9 8 -1.</_>
        <_>
          4 13 3 8 3.</_></rects>
      <tilted>0</tilted></_>
    <_>
      <rects>
        <_>
          2 0 12 21 -1.</_>
        <_>
          6 0 4 21 3.</_></rects>
      <tilted>0</tilted></_>
    <_>
      <rects>
        <_>
          2 8 15 1 -1.</_>
        <_>
          7 8 5 1 3.</_></rects>
      <tilted>0</tilted></_>
    <_>
      <rects>
        <_>
          2 9 8 2 -1.</_>
        <_>
          2 10 8 1 2.</_></rects>
      <tilted>0</tilted></_>
    <_>
      <rects>
        <_>
          2 18 16 6 -1.</_>
        <_>
          2 20 16 2 3.</_></rects>
      <tilted>0</tilted></_>
    <_>
      <rects>
        <_>
          3 1 4 5 -1.</_>
        <_>
          5 1 2 5 2.</_></rects>
      <tilted>0</tilted></_>
    <_>
      <rects>
        <_>
          3 15 15 4 -1.</_>
        <_>
          8 15 5 4 3.</_></rects>
      <tilted>0</tilted></_>
    <_>
      <rects>
        <_>
          4 0 2 5 -1.</_>
        <_>
          5 0 1 5 2.</_></rects>
      <tilted>0</tilted></_>
    <_>
      <rects>
        <_>
          4 13 4 3 -1.</_>
        <_>
          4 14 4 1 3.</_></rects>
      <tilted>0</tilted></_>
    <_>
      <rects>
        <_>
          4 13 8 3 -1.</_>
        <_>
          4 14 8 1 3.</_></rects>
      <tilted>0</tilted></_>
    <_>
      <rects>
        <_>
          5 0 12 8 -1.</_>
        <_>
          5 4 12 4 2.</_></rects>
      <tilted>0</tilted></_>
    <_>
      <rects>
        <_>
          5 1 12 17 -1.</_>
        <_>
          11 1 6 17 2.</_></rects>
      <tilted>0</tilted></_>
    <_>
      <rects>
        <_>
          5 5 10 15 -1.</_>
        <_>
          10 5 5 15 2.</_></rects>
      <tilted>0</tilted></_>
    <_>
      <rects>
        <_>
          5 10 4 7 -1.</_>
        <_>
          7 10 2 7 2.</_></rects>
      <tilted>0</tilted></_>
    <_>
      <rects>
        <_>
          6 1 1 16 -1.</_>
        <_>
          6 9 1 8 2.</_></rects>
      <tilted>0</tilted></_>
    <_>
      <rects>
        <_>
          6 5 11 3 -1.</_>
        <_>
          6 6 11 1 3.</_></rects>
      <tilted>0</tilted></_>
    <_>
      <rects>
        <_>
          6 17 6 2 -1.</_>
        <_>
          6 18 6 1 2.</_></rects>
      <tilted>0</tilted></_>
    <_>
      <rects>
        <_>
          7 3 6 8 -1.</_>
        <_>
          9 3 2 8 3.</_></rects>
      <tilted>0</tilted></_>
    <_>
      <rects>
        <_>
          7 14 16 10 -1.</_>
        <_>
          7 19 16 5 2.</_></rects>
      <tilted>0</tilted></_>
    <_>
      <rects>
        <_>
          9 0 14 16 -1.</_>
        <_>
          9 0 7 8 2.</_>
        <_>
          16 8 7 8 2.</_></rects>
      <tilted>0</tilted></_>
    <_>
      <rects>
        <_>
          9 2 9 12 -1.</_>
        <_>
          12 2 3 12 3.</_></rects>
      <tilted>0</tilted></_>
    <_>
      <rects>
        <_>
          9 3 3 8 -1.</_>
        <_>
          10 3 1 8 3.</_></rects>
      <tilted>0</tilted></_>
    <_>
      <rects>
        <_>
          9 15 3 3 -1.</_>
        <_>
          9 16 3 1 3.</_></rects>
      <tilted>0</tilted></_>
    <_>
      <rects>
        <_>
          10 6 14 18 -1.</_>
        <_>
          17 6 7 18 2.</_></rects>
      <tilted>0</tilted></_>
    <_>
      <rects>
        <_>
          10 14 7 9 -1.</_>
        <_>
          10 17 7 3 3.</_></rects>
      <tilted>0</tilted></_>
    <_>
      <rects>
        <_>
          11 0 6 6 -1.</_>
        <_>
          13 0 2 6 3.</_></rects>
      <tilted>0</tilted></_>
    <_>
      <rects>
        <_>
          11 1 6 18 -1.</_>
        <_>
          13 1 2 18 3.</_></rects>
      <tilted>0</tilted></_>
    <_>
      <rects>
        <_>
          11 3 9 4 -1.</_>
        <_>
          14 3 3 4 3.</_></rects>
      <tilted>0</tilted></_>
    <_>
      <rects>
        <_>
          11 12 4 12 -1.</_>
        <_>
          11 16 4 4 3.</_></rects>
      <tilted>0</tilted></_>
    <_>
      <rects>
        <_>
          12 14 1 3 -1.</_>
        <_>
          12 15 1 1 3.</_></rects>
      <tilted>0</tilted></_>
    <_>
      <rects>
        <_>
          12 15 1 2 -1.</_>
        <_>
          12 16 1 1 2.</_></rects>
      <tilted>0</tilted></_>
    <_>
      <rects>
        <_>
          12 17 12 4 -1.</_>
        <_>
          12 19 12 2 2.</_></rects>
      <tilted>0</tilted></_>
    <_>
      <rects>
        <_>
          13 5 4 16 -1.</_>
        <_>
          13 13 4 8 2.</_></rects>
      <tilted>0</tilted></_>
    <_>
      <rects>
        <_>
          13 15 10 8 -1.</_>
        <_>
          13 15 5 4 2.</_>
        <_>
          18 19 5 4 2.</_></rects>
      <tilted>0</tilted></_>
    <_>
      <rects>
        <_>
          13 19 11 4 -1.</_>
        <_>
          13 21 11 2 2.</_></rects>
      <tilted>0</tilted></_>
    <_>
      <rects>
        <_>
          14 15 3 6 -1.</_>
        <_>
          14 18 3 3 2.</_></rects>
      <tilted>0</tilted></_>
    <_>
      <rects>
        <_>
          16 0 4 4 -1.</_>
        <_>
          16 2 4 2 2.</_></rects>
      <tilted>0</tilted></_>
    <_>
      <rects>
        <_>
          16 10 6 12 -1.</_>
        <_>
          16 14 6 4 3.</_></rects>
      <tilted>0</tilted></_>
    <_>
      <rects>
        <_>
          16 19 2 3 -1.</_>
        <_>
          16 20 2 1 3.</_></rects>
      <tilted>0</tilted></_>
    <_>
      <rects>
        <_>
          19 4 3 7 -1.</_>
        <_>
          20 4 1 7 3.</_></rects>
      <tilted>0</tilted></_></features></cascade>
</opencv_storage>
