<?xml version="1.0"?>
<opencv_storage>
<cascade>
  <stageType>BOOST</stageType>
  <featureType>HAAR</featureType>
  <height>24</height>
  <width>24</width>
  <stageParams>
    <boostType>GAB</boostType>
    <minHitRate>9.9500000476837158e-01</minHitRate>
    <maxFalseAlarm>5.0000000000000000e-01</maxFalseAlarm>
    <weightTrimRate>9.4999998807907104e-01</weightTrimRate>
    <maxDepth>1</maxDepth>
    <maxWeakCount>100</maxWeakCount></stageParams>
  <featureParams>
    <maxCatCount>0</maxCatCount>
    <featSize>1</featSize>
    <mode>BASIC</mode></featureParams>
  <stageNum>16</stageNum>
  <stages>
    <!-- stage 0 -->
    <_>
      <maxWeakCount>2</maxWeakCount>
      <stageThreshold>-3.0664688348770142e-01</stageThreshold>
      <weakClassifiers>
        <_>
          <internalNodes>
            0 -1 27 -1.1094646155834198e-01</internalNodes>
          <leafValues>
            1. -8.5310733318328857e-01</leafValues></_>
        <_>
          <internalNodes>
            0 -1 4 -3.0166434124112129e-02</internalNodes>
          <leafValues>
            5.4646044969558716e-01 -1.</leafValues></_></weakClassifiers></_>
    <!-- stage 1 -->
    <_>
      <maxWeakCount>3</maxWeakCount>
      <stageThreshold>-1.2175358533859253e+00</stageThreshold>
      <weakClassifiers>
        <_>
          <internalNodes>
            0 -1 19 2.7308313176035881e-02</internalNodes>
          <leafValues>
            -8.6363637447357178e-01 1.</leafValues></_>
        <_>
          <internalNodes>
            0 -1 12 -1.7280840547755361e-03</internalNodes>
          <leafValues>
            6.9812649488449097e-01 -9.2907446622848511e-01</leafValues></_>
        <_>
          <internalNodes>
            0 -1 9 -7.9499602317810059e-02</internalNodes>
          <leafValues>
            5.7517492771148682e-01 -8.3512085676193237e-01</leafValues></_></weakClassifiers></_>
    <!-- stage 2 -->
    <_>
      <maxWeakCount>3</maxWeakCount>
      <stageThreshold>-1.0226160287857056e+00</stageThreshold>
      <weakClassifiers>
        <_>
          <internalNodes>
            0 -1 29 -1.0059133172035217e-01</internalNodes>
          <leafValues>
            1. -8.7428569793701172e-01</leafValues></_>
        <_>
          <internalNodes>
            0 -1 43 -5.7038273662328720e-03</internalNodes>
          <leafValues>
            5.6441175937652588e-01 -9.2524850368499756e-01</leafValues></_>
        <_>
          <internalNodes>
            0 -1 40 2.2810917347669601e-02</internalNodes>
          <leafValues>
            -6.7118400335311890e-01 7.7691817283630371e-01</leafValues></_></weakClassifiers></_>
    <!-- stage 3 -->
    <_>
      <maxWeakCount>3</maxWeakCount>
      <stageThreshold>-1.1714638471603394e+00</stageThreshold>
      <weakClassifiers>
        <_>
          <internalNodes>
            0 -1 8 -4.3862886726856232e-02</internalNodes>
          <leafValues>
            8.1818181276321411e-01 -8.7356323003768921e-01</leafValues></_>
        <_>
          <internalNodes>
            0 -1 38 -5.6188400834798813e-02</internalNodes>
          <leafValues>
            6.1346173286437988e-01 -8.2024252414703369e-01</leafValues></_>
        <_>
          <internalNodes>
            0 -1 17 4.1431140154600143e-02</internalNodes>
          <leafValues>
            -7.3749655485153198e-01 5.2234184741973877e-01</leafValues></_></weakClassifiers></_>
    <!-- stage 4 -->
    <_>
      <maxWeakCount>3</maxWeakCount>
      <stageThreshold>-8.8878864049911499e-01</stageThreshold>
      <weakClassifiers>
        <_>
          <internalNodes>
            0 -1 10 -6.6247656941413879e-02</internalNodes>
          <leafValues>
            1. -8.4269660711288452e-01</leafValues></_>
        <_>
          <internalNodes>
            0 -1 37 1.2696417048573494e-02</internalNodes>
          <leafValues>
            -8.0285847187042236e-01 5.7526046037673950e-01</leafValues></_>
        <_>
          <internalNodes>
            0 -1 23 -3.8352191448211670e-02</internalNodes>
          <leafValues>
            7.5676643848419189e-01 -5.5643522739410400e-01</leafValues></_></weakClassifiers></_>
    <!-- stage 5 -->
    <_>
      <maxWeakCount>3</maxWeakCount>
      <stageThreshold>-1.4339092969894409e+00</stageThreshold>
      <weakClassifiers>
        <_>
          <internalNodes>
            0 -1 41 3.9545089006423950e-02</internalNodes>
          <leafValues>
            -8.5227274894714355e-01 7.7777779102325439e-01</leafValues></_>
        <_>
          <internalNodes>
            0 -1 0 -8.9328616857528687e-02</internalNodes>
          <leafValues>
            5.8208203315734863e-01 -8.5237067937850952e-01</leafValues></_>
        <_>
          <internalNodes>
            0 -1 14 9.8473660182207823e-04</internalNodes>
          <leafValues>
            -9.5998013019561768e-01 2.7073410153388977e-01</leafValues></_></weakClassifiers></_>
    <!-- stage 6 -->
    <_>
      <maxWeakCount>2</maxWeakCount>
      <stageThreshold>-7.3232591152191162e-01</stageThreshold>
      <weakClassifiers>
        <_>
          <internalNodes>
            0 -1 18 -2.4110996723175049e-01</internalNodes>
          <leafValues>
            5.5555558204650879e-01 -8.4090906381607056e-01</leafValues></_>
        <_>
          <internalNodes>
            0 -1 45 -3.6607525544241071e-04</internalNodes>
          <leafValues>
            -1. 1.0858316719532013e-01</leafValues></_></weakClassifiers></_>
    <!-- stage 7 -->
    <_>
      <maxWeakCount>3</maxWeakCount>
      <stageThreshold>-1.0829418897628784e+00</stageThreshold>
      <weakClassifiers>
        <_>
          <internalNodes>
            0 -1 21 -1.1812570691108704e-01</internalNodes>
          <leafValues>
            1. -8.2222223281860352e-01</leafValues></_>
        <_>
          <internalNodes>
            0 -1 3 -3.1536293029785156e-01</internalNodes>
          <leafValues>
            5.7434725761413574e-01 -6.5682882070541382e-01</leafValues></_>
        <_>
          <internalNodes>
            0 -1 34 2.5059617473743856e-04</internalNodes>
          <leafValues>
            3.9610916376113892e-01 -9.4868576526641846e-01</leafValues></_></weakClassifiers></_>
    <!-- stage 8 -->
    <_>
      <maxWeakCount>3</maxWeakCount>
      <stageThreshold>-1.2813925743103027e+00</stageThreshold>
      <weakClassifiers>
        <_>
          <internalNodes>
            0 -1 2 -2.5039204955101013e-01</internalNodes>
          <leafValues>
            1.1111111193895340e-01 -9.2405062913894653e-01</leafValues></_>
        <_>
          <internalNodes>
            0 -1 36 -7.4898332357406616e-02</internalNodes>
          <leafValues>
            1. -6.0240888595581055e-01</leafValues></_>
        <_>
          <internalNodes>
            0 -1 33 -6.5657347440719604e-02</internalNodes>
          <leafValues>
            5.2058362960815430e-01 -7.9009479284286499e-01</leafValues></_></weakClassifiers></_>
    <!-- stage 9 -->
    <_>
      <maxWeakCount>3</maxWeakCount>
      <stageThreshold>-1.3420219421386719e+00</stageThreshold>
      <weakClassifiers>
        <_>
          <internalNodes>
            0 -1 16 -1.5735024213790894e-01</internalNodes>
          <leafValues>
            5.5555558204650879e-01 -8.4090906381607056e-01</leafValues></_>
        <_>
          <internalNodes>
            0 -1 22 -2.5160681456327438e-02</internalNodes>
          <leafValues>
            -7.6557677984237671e-01 3.8840550184249878e-01</leafValues></_>
        <_>
          <internalNodes>
            0 -1 11 -3.4076769952662289e-04</internalNodes>
          <leafValues>
            -1. 2.6446390151977539e-01</leafValues></_></weakClassifiers></_>
    <!-- stage 10 -->
    <_>
      <maxWeakCount>3</maxWeakCount>
      <stageThreshold>-1.3820059299468994e+00</stageThreshold>
      <weakClassifiers>
        <_>
          <internalNodes>
            0 -1 39 -2.7809575200080872e-02</internalNodes>
          <leafValues>
            6.0000002384185791e-01 -8.5142856836318970e-01</leafValues></_>
        <_>
          <internalNodes>
            0 -1 42 9.7810907755047083e-04</internalNodes>
          <leafValues>
            -8.2995826005935669e-01 2.4520689249038696e-01</leafValues></_>
        <_>
          <internalNodes>
            0 -1 1 -1.0993970558047295e-02</internalNodes>
          <leafValues>
            2.9938098788261414e-01 -9.7011333703994751e-01</leafValues></_></weakClassifiers></_>
    <!-- stage 11 -->
    <_>
      <maxWeakCount>3</maxWeakCount>
      <stageThreshold>-1.2679195404052734e+00</stageThreshold>
      <weakClassifiers>
        <_>
          <internalNodes>
            0 -1 15 -4.4821187853813171e-02</internalNodes>
          <leafValues>
            5.5555558204650879e-01 -8.4090906381607056e-01</leafValues></_>
        <_>
          <internalNodes>
            0 -1 5 1.1292116250842810e-03</internalNodes>
          <leafValues>
            1.8997748196125031e-01 -8.9166009426116943e-01</leafValues></_>
        <_>
          <internalNodes>
            0 -1 25 -3.6855168640613556e-02</internalNodes>
          <leafValues>
            -6.1698794364929199e-01 6.0370224714279175e-01</leafValues></_></weakClassifiers></_>
    <!-- stage 12 -->
    <_>
      <maxWeakCount>4</maxWeakCount>
      <stageThreshold>-7.5137537717819214e-01</stageThreshold>
      <weakClassifiers>
        <_>
          <internalNodes>
            0 -1 24 -2.4093291163444519e-01</internalNodes>
          <leafValues>
            1. -8.2222223281860352e-01</leafValues></_>
        <_>
          <internalNodes>
            0 -1 47 -3.7768001202493906e-03</internalNodes>
          <leafValues>
            5.5077260732650757e-01 -6.5492308139801025e-01</leafValues></_>
        <_>
          <internalNodes>
            0 -1 46 -2.6758224703371525e-04</internalNodes>
          <leafValues>
            -9.0380489826202393e-01 3.6233198642730713e-01</leafValues></_>
        <_>
          <internalNodes>
            0 -1 32 3.6086028558202088e-05</internalNodes>
          <leafValues>
            -8.0460399389266968e-01 4.2387911677360535e-01</leafValues></_></weakClassifiers></_>
    <!-- stage 13 -->
    <_>
      <maxWeakCount>3</maxWeakCount>
      <stageThreshold>-1.2090061902999878e+00</stageThreshold>
      <weakClassifiers>
        <_>
          <internalNodes>
            0 -1 44 3.2073967158794403e-02</internalNodes>
          <leafValues>
            -8.4090906381607056e-01 5.5555558204650879e-01</leafValues></_>
        <_>
          <internalNodes>
            0 -1 7 2.3668273352086544e-03</internalNodes>
          <leafValues>
            -7.7610009908676147e-01 3.5404819250106812e-01</leafValues></_>
        <_>
          <internalNodes>
            0 -1 28 -1.0528684651944786e-04</internalNodes>
          <leafValues>
            -8.3819532394409180e-01 4.0800300240516663e-01</leafValues></_></weakClassifiers></_>
    <!-- stage 14 -->
    <_>
      <maxWeakCount>4</maxWeakCount>
      <stageThreshold>-1.1188409328460693e+00</stageThreshold>
      <weakClassifiers>
        <_>
          <internalNodes>
            0 -1 20 -2.1053958684206009e-02</internalNodes>
          <leafValues>
            1. -8.2222223281860352e-01</leafValues></_>
        <_>
          <internalNodes>
            0 -1 30 6.0727594245690852e-05</internalNodes>
          <leafValues>
            -9.1008478403091431e-01 1.7977997660636902e-01</leafValues></_>
        <_>
          <internalNodes>
            0 -1 31 -4.4961541425436735e-04</internalNodes>
          <leafValues>
            -1. 2.4921748042106628e-01</leafValues></_>
        <_>
          <internalNodes>
            0 -1 13 -2.5274552172049880e-04</internalNodes>
          <leafValues>
            3.6424866318702698e-01 -9.3664699792861938e-01</leafValues></_></weakClassifiers></_>
    <!-- stage 15 -->
    <_>
      <maxWeakCount>3</maxWeakCount>
      <stageThreshold>-1.1256301403045654e+00</stageThreshold>
      <weakClassifiers>
        <_>
          <internalNodes>
            0 -1 26 -8.9785605669021606e-03</internalNodes>
          <leafValues>
            1. -8.3240222930908203e-01</leafValues></_>
        <_>
          <internalNodes>
            0 -1 35 2.9056062921881676e-02</internalNodes>
          <leafValues>
            -7.9256117343902588e-01 4.0275844931602478e-01</leafValues></_>
        <_>
          <internalNodes>
            0 -1 6 -7.5993537902832031e-02</internalNodes>
          <leafValues>
            5.7935345172882080e-01 -6.9598633050918579e-01</leafValues></_></weakClassifiers></_></stages>
  <features>
    <_>
      <rects>
        <_>
          0 0 16 16 -1.</_>
        <_>
          0 0 8 8 2.</_>
        <_>
          8 8 8 8 2.</_></rects>
      <tilted>0</tilted></_>
    <_>
      <rects>
        <_>
          0 0 15 8 -1.</_>
        <_>
          0 4 15 4 2.</_></rects>
      <tilted>0</tilted></_>
    <_>
      <rects>
        <_>
          0 0 15 20 -1.</_>
        <_>
          0 10 15 10 2.</_></rects>
      <tilted>0</tilted></_>
    <_>
      <rects>
        <_>
          0 1 24 16 -1.</_>
        <_>
          8 1 8 16 3.</_></rects>
      <tilted>0</tilted></_>
    <_>
      <rects>
        <_>
          0 4 24 6 -1.</_>
        <_>
          0 7 24 3 2.</_></rects>
      <tilted>0</tilted></_>
    <_>
      <rects>
        <_>
          0 13 3 6 -1.</_>
        <_>
          0 15 3 2 3.</_></rects>
      <tilted>0</tilted></_>
    <_>
      <rects>
        <_>
          1 0 20 11 -1.</_>
        <_>
          11 0 10 11 2.</_></rects>
      <tilted>0</tilted></_>
    <_>
      <rects>
        <_>
          1 8 17 3 -1.</_>
        <_>
          1 9 17 1 3.</_></rects>
      <tilted>0</tilted></_>
    <_>
      <rects>
        <_>
          1 12 14 2 -1.</_>
        <_>
          8 12 7 2 2.</_></rects>
      <tilted>0</tilted></_>
    <_>
      <rects>
        <_>
          2 1 12 22 -1.</_>
        <_>
          8 1 6 22 2.</_></rects>
      <tilted>0</tilted></_>
    <_>
      <rects>
        <_>
          2 11 12 5 -1.</_>
        <_>
          6 11 4 5 3.</_></rects>
      <tilted>0</tilted></_>
    <_>
      <rects>
        <_>
          2 13 1 6 -1.</_>
        <_>
          2 15 1 2 3.</_></rects>
      <tilted>0</tilted></_>
    <_>
      <rects>
        <_>
          2 22 6 2 -1.</_>
        <_>
          2 23 6 1 2.</_></rects>
      <tilted>0</tilted></_>
    <_>
      <rects>
        <_>
          3 4 7 2 -1.</_>
        <_>
          3 5 7 1 2.</_></rects>
      <tilted>0</tilted></_>
    <_>
      <rects>
        <_>
          3 11 5 6 -1.</_>
        <_>
          3 13 5 2 3.</_></rects>
      <tilted>0</tilted></_>
    <_>
      <rects>
        <_>
          4 9 3 12 -1.</_>
        <_>
          4 13 3 4 3.</_></rects>
      <tilted>0</tilted></_>
    <_>
      <rects>
        <_>
          4 9 13 12 -1.</_>
        <_>
          4 13 13 4 3.</_></rects>
      <tilted>0</tilted></_>
    <_>
      <rects>
        <_>
          5 2 10 22 -1.</_>
        <_>
          5 2 5 11 2.</_>
        <_>
          10 13 5 11 2.</_></rects>
      <tilted>0</tilted></_>
    <_>
      <rects>
        <_>
          5 6 10 15 -1.</_>
        <_>
          5 11 10 5 3.</_></rects>
      <tilted>0</tilted></_>
    <_>
      <rects>
        <_>
          5 12 6 6 -1.</_>
        <_>
          5 12 3 3 2.</_>
        <_>
          8 15 3 3 2.</_></rects>
      <tilted>0</tilted></_>
    <_>
      <rects>
        <_>
          5 16 6 2 -1.</_>
        <_>
          7 16 2 2 3.</_></rects>
      <tilted>0</tilted></_>
    <_>
      <rects>
        <_>
          6 4 5 18 -1.</_>
        <_>
          6 13 5 9 2.</_></rects>
      <tilted>0</tilted></_>
    <_>
      <rects>
        <_>
          6 5 12 14 -1.</_>
        <_>
          6 12 12 7 2.</_></rects>
      <tilted>0</tilted></_>
    <_>
      <rects>
        <_>
          6 21 18 2 -1.</_>
        <_>
          15 21 9 2 2.</_></rects>
      <tilted>0</tilted></_>
    <_>
      <rects>
        <_>
          7 2 8 16 -1.</_>
        <_>
          7 10 8 8 2.</_></rects>
      <tilted>0</tilted></_>
    <_>
      <rects>
        <_>
          7 4 12 14 -1.</_>
        <_>
          7 11 12 7 2.</_></rects>
      <tilted>0</tilted></_>
    <_>
      <rects>
        <_>
          7 6 5 2 -1.</_>
        <_>
          7 7 5 1 2.</_></rects>
      <tilted>0</tilted></_>
    <_>
      <rects>
        <_>
          8 7 6 12 -1.</_>
        <_>
          8 11 6 4 3.</_></rects>
      <tilted>0</tilted></_>
    <_>
      <rects>
        <_>
          8 19 10 2 -1.</_>
        <_>
          8 19 5 1 2.</_>
        <_>
          13 20 5 1 2.</_></rects>
      <tilted>0</tilted></_>
    <_>
      <rects>
        <_>
          9 5 5 15 -1.</_>
        <_>
          9 10 5 5 3.</_></rects>
      <tilted>0</tilted></_>
    <_>
      <rects>
        <_>
          9 8 4 3 -1.</_>
        <_>
          9 9 4 1 3.</_></rects>
      <tilted>0</tilted></_>
    <_>
      <rects>
        <_>
          10 0 2 6 -1.</_>
        <_>
          11 0 1 6 2.</_></rects>
      <tilted>0</tilted></_>
    <_>
      <rects>
        <_>
          10 10 3 3 -1.</_>
        <_>
          10 11 3 1 3.</_></rects>
      <tilted>0</tilted></_>
    <_>
      <rects>
        <_>
          11 4 10 18 -1.</_>
        <_>
          11 13 10 9 2.</_></rects>
      <tilted>0</tilted></_>
    <_>
      <rects>
        <_>
          12 3 8 2 -1.</_>
        <_>
          12 3 4 1 2.</_>
        <_>
          16 4 4 1 2.</_></rects>
      <tilted>0</tilted></_>
    <_>
      <rects>
        <_>
          12 3 8 12 -1.</_>
        <_>
          12 7 8 4 3.</_></rects>
      <tilted>0</tilted></_>
    <_>
      <rects>
        <_>
          13 9 9 14 -1.</_>
        <_>
          16 9 3 14 3.</_></rects>
      <tilted>0</tilted></_>
    <_>
      <rects>
        <_>
          13 18 9 4 -1.</_>
        <_>
          16 18 3 4 3.</_></rects>
      <tilted>0</tilted></_>
    <_>
      <rects>
        <_>
          14 4 10 18 -1.</_>
        <_>
          14 4 5 9 2.</_>
        <_>
          19 13 5 9 2.</_></rects>
      <tilted>0</tilted></_>
    <_>
      <rects>
        <_>
          14 10 6 11 -1.</_>
        <_>
          16 10 2 11 3.</_></rects>
      <tilted>0</tilted></_>
    <_>
      <rects>
        <_>
          15 2 6 12 -1.</_>
        <_>
          15 6 6 4 3.</_></rects>
      <tilted>0</tilted></_>
    <_>
      <rects>
        <_>
          15 6 4 13 -1.</_>
        <_>
          17 6 2 13 2.</_></rects>
      <tilted>0</tilted></_>
    <_>
      <rects>
        <_>
          15 14 8 4 -1.</_>
        <_>
          15 14 4 2 2.</_>
        <_>
          19 16 4 2 2.</_></rects>
      <tilted>0</tilted></_>
    <_>
      <rects>
        <_>
          17 15 1 8 -1.</_>
        <_>
          17 19 1 4 2.</_></rects>
      <tilted>0</tilted></_>
    <_>
      <rects>
        <_>
          18 3 6 4 -1.</_>
        <_>
          21 3 3 4 2.</_></rects>
      <tilted>0</tilted></_>
    <_>
      <rects>
        <_>
          20 15 3 8 -1.</_>
        <_>
          21 15 1 8 3.</_></rects>
      <tilted>0</tilted></_>
    <_>
      <rects>
        <_>
          20 18 3 3 -1.</_>
        <_>
          20 19 3 1 3.</_></rects>
      <tilted>0</tilted></_>
    <_>
      <rects>
        <_>
          22 11 2 8 -1.</_>
        <_>
          22 11 1 4 2.</_>
        <_>
          23 15 1 4 2.</_></rects>
      <tilted>0</tilted></_></features></cascade>
</opencv_storage>
