<?xml version="1.0"?>
<opencv_storage>
<cascade>
  <stageType>BOOST</stageType>
  <featureType>HAAR</featureType>
  <height>24</height>
  <width>24</width>
  <stageParams>
    <boostType>GAB</boostType>
    <minHitRate>9.9500000476837158e-01</minHitRate>
    <maxFalseAlarm>5.0000000000000000e-01</maxFalseAlarm>
    <weightTrimRate>9.4999998807907104e-01</weightTrimRate>
    <maxDepth>1</maxDepth>
    <maxWeakCount>100</maxWeakCount></stageParams>
  <featureParams>
    <maxCatCount>0</maxCatCount>
    <featSize>1</featSize>
    <mode>BASIC</mode></featureParams>
  <stageNum>3</stageNum>
  <stages>
    <!-- stage 0 -->
    <_>
      <maxWeakCount>3</maxWeakCount>
      <stageThreshold>-9.3081247806549072e-01</stageThreshold>
      <weakClassifiers>
        <_>
          <internalNodes>
            0 -1 3 -4.4928934425115585e-02</internalNodes>
          <leafValues>
            6.1904764175415039e-01 -9.4666665792465210e-01</leafValues></_>
        <_>
          <internalNodes>
            0 -1 2 -8.2525186240673065e-02</internalNodes>
          <leafValues>
            7.8836548328399658e-01 -8.1571674346923828e-01</leafValues></_>
        <_>
          <internalNodes>
            0 -1 6 3.3186036162078381e-03</internalNodes>
          <leafValues>
            -7.7251130342483521e-01 8.4633743762969971e-01</leafValues></_></weakClassifiers></_>
    <!-- stage 1 -->
    <_>
      <maxWeakCount>2</maxWeakCount>
      <stageThreshold>-2.3905594646930695e-01</stageThreshold>
      <weakClassifiers>
        <_>
          <internalNodes>
            0 -1 5 -3.2561987638473511e-02</internalNodes>
          <leafValues>
            6.0000002384185791e-01 -9.3377482891082764e-01</leafValues></_>
        <_>
          <internalNodes>
            0 -1 1 7.6014727354049683e-02</internalNodes>
          <leafValues>
            -8.3905595541000366e-01 7.8137040138244629e-01</leafValues></_></weakClassifiers></_>
    <!-- stage 2 -->
    <_>
      <maxWeakCount>2</maxWeakCount>
      <stageThreshold>-2.7603197097778320e-01</stageThreshold>
      <weakClassifiers>
        <_>
          <internalNodes>
            0 -1 4 -1.2153397500514984e-01</internalNodes>
          <leafValues>
            8.1818181276321411e-01 -8.6250001192092896e-01</leafValues></_>
        <_>
          <internalNodes>
            0 -1 0 -2.8901463747024536e-01</internalNodes>
          <leafValues>
            5.8646804094314575e-01 -9.5504188537597656e-01</leafValues></_></weakClassifiers></_></stages>
  <features>
    <_>
      <rects>
        <_>
          0 0 23 22 -1.</_>
        <_>
          0 11 23 11 2.</_></rects>
      <tilted>0</tilted></_>
    <_>
      <rects>
        <_>
          0 11 20 12 -1.</_>
        <_>
          0 15 20 4 3.</_></rects>
      <tilted>0</tilted></_>
    <_>
      <rects>
        <_>
          1 4 10 20 -1.</_>
        <_>
          6 4 5 20 2.</_></rects>
      <tilted>0</tilted></_>
    <_>
      <rects>
        <_>
          5 4 8 11 -1.</_>
        <_>
          9 4 4 11 2.</_></rects>
      <tilted>0</tilted></_>
    <_>
      <rects>
        <_>
          8 0 6 24 -1.</_>
        <_>
          11 0 3 24 2.</_></rects>
      <tilted>0</tilted></_>
    <_>
      <rects>
        <_>
          9 5 3 10 -1.</_>
        <_>
          9 10 3 5 2.</_></rects>
      <tilted>0</tilted></_>
    <_>
      <rects>
        <_>
          13 9 3 3 -1.</_>
        <_>
          13 10 3 1 3.</_></rects>
      <tilted>0</tilted></_></features></cascade>
</opencv_storage>
