<?xml version="1.0"?>
<opencv_storage>
<cascade>
  <stageType>BOOST</stageType>
  <featureType>HAAR</featureType>
  <height>24</height>
  <width>24</width>
  <stageParams>
    <boostType>GAB</boostType>
    <minHitRate>9.9500000476837158e-01</minHitRate>
    <maxFalseAlarm>5.0000000000000000e-01</maxFalseAlarm>
    <weightTrimRate>9.4999998807907104e-01</weightTrimRate>
    <maxDepth>1</maxDepth>
    <maxWeakCount>100</maxWeakCount></stageParams>
  <featureParams>
    <maxCatCount>0</maxCatCount>
    <featSize>1</featSize>
    <mode>BASIC</mode></featureParams>
  <stageNum>5</stageNum>
  <stages>
    <!-- stage 0 -->
    <_>
      <maxWeakCount>3</maxWeakCount>
      <stageThreshold>-1.3703384399414063e+00</stageThreshold>
      <weakClassifiers>
        <_>
          <internalNodes>
            0 -1 8 -5.4257020354270935e-02</internalNodes>
          <leafValues>
            1. -9.6850395202636719e-01</leafValues></_>
        <_>
          <internalNodes>
            0 -1 16 -5.4515723139047623e-02</internalNodes>
          <leafValues>
            4.5100682973861694e-01 -8.9269506931304932e-01</leafValues></_>
        <_>
          <internalNodes>
            0 -1 4 -5.2021622657775879e-02</internalNodes>
          <leafValues>
            5.7296097278594971e-01 -8.5284137725830078e-01</leafValues></_></weakClassifiers></_>
    <!-- stage 1 -->
    <_>
      <maxWeakCount>3</maxWeakCount>
      <stageThreshold>-1.3287799358367920e+00</stageThreshold>
      <weakClassifiers>
        <_>
          <internalNodes>
            0 -1 6 -3.6462712287902832e-01</internalNodes>
          <leafValues>
            1. -9.7044336795806885e-01</leafValues></_>
        <_>
          <internalNodes>
            0 -1 1 -3.1114432215690613e-01</internalNodes>
          <leafValues>
            4.6314561367034912e-01 -9.1796237230300903e-01</leafValues></_>
        <_>
          <internalNodes>
            0 -1 12 -1.5024603344500065e-02</internalNodes>
          <leafValues>
            6.1824572086334229e-01 -8.2148218154907227e-01</leafValues></_></weakClassifiers></_>
    <!-- stage 2 -->
    <_>
      <maxWeakCount>4</maxWeakCount>
      <stageThreshold>-2.2368965148925781e+00</stageThreshold>
      <weakClassifiers>
        <_>
          <internalNodes>
            0 -1 11 -1.3024970889091492e-01</internalNodes>
          <leafValues>
            6.6666670143604279e-02 -9.7611939907073975e-01</leafValues></_>
        <_>
          <internalNodes>
            0 -1 10 -1.8673160672187805e-01</internalNodes>
          <leafValues>
            6.7156702280044556e-01 -8.7201112508773804e-01</leafValues></_>
        <_>
          <internalNodes>
            0 -1 9 -1.7920267581939697e-01</internalNodes>
          <leafValues>
            5.9188181161880493e-01 -7.7068018913269043e-01</leafValues></_>
        <_>
          <internalNodes>
            0 -1 0 -6.5618683584034443e-03</internalNodes>
          <leafValues>
            3.8191410899162292e-01 -9.6094059944152832e-01</leafValues></_></weakClassifiers></_>
    <!-- stage 3 -->
    <_>
      <maxWeakCount>4</maxWeakCount>
      <stageThreshold>-2.3218045234680176e+00</stageThreshold>
      <weakClassifiers>
        <_>
          <internalNodes>
            0 -1 13 2.1638508886098862e-02</internalNodes>
          <leafValues>
            -9.7041422128677368e-01 6.6666668653488159e-01</leafValues></_>
        <_>
          <internalNodes>
            0 -1 3 -7.3822394013404846e-02</internalNodes>
          <leafValues>
            3.5768631100654602e-01 -8.9494669437408447e-01</leafValues></_>
        <_>
          <internalNodes>
            0 -1 7 -1.1335617303848267e-01</internalNodes>
          <leafValues>
            2.2036397457122803e-01 -8.1417489051818848e-01</leafValues></_>
        <_>
          <internalNodes>
            0 -1 15 -4.6048369258642197e-03</internalNodes>
          <leafValues>
            3.5773131251335144e-01 -9.0676003694534302e-01</leafValues></_></weakClassifiers></_>
    <!-- stage 4 -->
    <_>
      <maxWeakCount>3</maxWeakCount>
      <stageThreshold>-1.5216057300567627e+00</stageThreshold>
      <weakClassifiers>
        <_>
          <internalNodes>
            0 -1 2 -1.0918454825878143e-01</internalNodes>
          <leafValues>
            1. -9.6850395202636719e-01</leafValues></_>
        <_>
          <internalNodes>
            0 -1 5 -1.1670611798763275e-02</internalNodes>
          <leafValues>
            6.4446383714675903e-01 -8.9362055063247681e-01</leafValues></_>
        <_>
          <internalNodes>
            0 -1 14 -3.7509351968765259e-03</internalNodes>
          <leafValues>
            -9.1976302862167358e-01 3.4051874279975891e-01</leafValues></_></weakClassifiers></_></stages>
  <features>
    <_>
      <rects>
        <_>
          0 2 12 8 -1.</_>
        <_>
          0 6 12 4 2.</_></rects>
      <tilted>0</tilted></_>
    <_>
      <rects>
        <_>
          0 4 20 16 -1.</_>
        <_>
          0 12 20 8 2.</_></rects>
      <tilted>0</tilted></_>
    <_>
      <rects>
        <_>
          0 13 15 4 -1.</_>
        <_>
          5 13 5 4 3.</_></rects>
      <tilted>0</tilted></_>
    <_>
      <rects>
        <_>
          1 8 8 10 -1.</_>
        <_>
          5 8 4 10 2.</_></rects>
      <tilted>0</tilted></_>
    <_>
      <rects>
        <_>
          3 12 21 3 -1.</_>
        <_>
          10 12 7 3 3.</_></rects>
      <tilted>0</tilted></_>
    <_>
      <rects>
        <_>
          4 6 8 1 -1.</_>
        <_>
          8 6 4 1 2.</_></rects>
      <tilted>0</tilted></_>
    <_>
      <rects>
        <_>
          4 8 20 16 -1.</_>
        <_>
          4 16 20 8 2.</_></rects>
      <tilted>0</tilted></_>
    <_>
      <rects>
        <_>
          4 9 20 15 -1.</_>
        <_>
          14 9 10 15 2.</_></rects>
      <tilted>0</tilted></_>
    <_>
      <rects>
        <_>
          5 3 11 4 -1.</_>
        <_>
          5 5 11 2 2.</_></rects>
      <tilted>0</tilted></_>
    <_>
      <rects>
        <_>
          6 0 18 24 -1.</_>
        <_>
          15 0 9 24 2.</_></rects>
      <tilted>0</tilted></_>
    <_>
      <rects>
        <_>
          7 0 11 15 -1.</_>
        <_>
          7 5 11 5 3.</_></rects>
      <tilted>0</tilted></_>
    <_>
      <rects>
        <_>
          8 17 16 7 -1.</_>
        <_>
          16 17 8 7 2.</_></rects>
      <tilted>0</tilted></_>
    <_>
      <rects>
        <_>
          9 9 9 1 -1.</_>
        <_>
          12 9 3 1 3.</_></rects>
      <tilted>0</tilted></_>
    <_>
      <rects>
        <_>
          12 5 3 14 -1.</_>
        <_>
          13 5 1 14 3.</_></rects>
      <tilted>0</tilted></_>
    <_>
      <rects>
        <_>
          14 4 4 6 -1.</_>
        <_>
          14 7 4 3 2.</_></rects>
      <tilted>0</tilted></_>
    <_>
      <rects>
        <_>
          15 4 7 6 -1.</_>
        <_>
          15 7 7 3 2.</_></rects>
      <tilted>0</tilted></_>
    <_>
      <rects>
        <_>
          16 1 8 12 -1.</_>
        <_>
          16 1 4 6 2.</_>
        <_>
          20 7 4 6 2.</_></rects>
      <tilted>0</tilted></_></features></cascade>
</opencv_storage>
