<?xml version="1.0"?>
<opencv_storage>
<cascade>
  <stageType>BOOST</stageType>
  <featureType>HAAR</featureType>
  <height>24</height>
  <width>24</width>
  <stageParams>
    <boostType>GAB</boostType>
    <minHitRate>9.9500000476837158e-01</minHitRate>
    <maxFalseAlarm>5.0000000000000000e-01</maxFalseAlarm>
    <weightTrimRate>9.4999998807907104e-01</weightTrimRate>
    <maxDepth>1</maxDepth>
    <maxWeakCount>100</maxWeakCount></stageParams>
  <featureParams>
    <maxCatCount>0</maxCatCount>
    <featSize>1</featSize>
    <mode>BASIC</mode></featureParams>
  <stageNum>4</stageNum>
  <stages>
    <!-- stage 0 -->
    <_>
      <maxWeakCount>2</maxWeakCount>
      <stageThreshold>-1.6219337284564972e-01</stageThreshold>
      <weakClassifiers>
        <_>
          <internalNodes>
            0 -1 1 -4.9723859876394272e-02</internalNodes>
          <leafValues>
            7.1428573131561279e-01 -9.5200002193450928e-01</leafValues></_>
        <_>
          <internalNodes>
            0 -1 5 -1.7912963405251503e-02</internalNodes>
          <leafValues>
            8.3823084831237793e-01 -8.7647908926010132e-01</leafValues></_></weakClassifiers></_>
    <!-- stage 1 -->
    <_>
      <maxWeakCount>2</maxWeakCount>
      <stageThreshold>-4.5390075445175171e-01</stageThreshold>
      <weakClassifiers>
        <_>
          <internalNodes>
            0 -1 2 -8.5153318941593170e-02</internalNodes>
          <leafValues>
            5.1999998092651367e-01 -9.6694213151931763e-01</leafValues></_>
        <_>
          <internalNodes>
            0 -1 7 3.2254606485366821e-02</internalNodes>
          <leafValues>
            -9.1052502393722534e-01 5.1304137706756592e-01</leafValues></_></weakClassifiers></_>
    <!-- stage 2 -->
    <_>
      <maxWeakCount>2</maxWeakCount>
      <stageThreshold>-1.7233894765377045e-01</stageThreshold>
      <weakClassifiers>
        <_>
          <internalNodes>
            0 -1 6 -1.0524301230907440e-01</internalNodes>
          <leafValues>
            5.7894736528396606e-01 -9.0551179647445679e-01</leafValues></_>
        <_>
          <internalNodes>
            0 -1 9 -1.5709420666098595e-02</internalNodes>
          <leafValues>
            9.0021562576293945e-01 -7.5128632783889771e-01</leafValues></_></weakClassifiers></_>
    <!-- stage 3 -->
    <_>
      <maxWeakCount>4</maxWeakCount>
      <stageThreshold>-4.5960342884063721e-01</stageThreshold>
      <weakClassifiers>
        <_>
          <internalNodes>
            0 -1 4 -2.7031463384628296e-01</internalNodes>
          <leafValues>
            1. -8.3823531866073608e-01</leafValues></_>
        <_>
          <internalNodes>
            0 -1 8 1.8994543701410294e-02</internalNodes>
          <leafValues>
            -8.3381724357604980e-01 7.4600809812545776e-01</leafValues></_>
        <_>
          <internalNodes>
            0 -1 0 -8.9390634093433619e-04</internalNodes>
          <leafValues>
            -1. 4.6045064926147461e-01</leafValues></_>
        <_>
          <internalNodes>
            0 -1 3 -1.1865141242742538e-01</internalNodes>
          <leafValues>
            7.5199848413467407e-01 -6.3408303260803223e-01</leafValues></_></weakClassifiers></_></stages>
  <features>
    <_>
      <rects>
        <_>
          0 1 5 12 -1.</_>
        <_>
          0 5 5 4 3.</_></rects>
      <tilted>0</tilted></_>
    <_>
      <rects>
        <_>
          2 6 8 18 -1.</_>
        <_>
          6 6 4 18 2.</_></rects>
      <tilted>0</tilted></_>
    <_>
      <rects>
        <_>
          3 0 17 12 -1.</_>
        <_>
          3 6 17 6 2.</_></rects>
      <tilted>0</tilted></_>
    <_>
      <rects>
        <_>
          3 11 12 9 -1.</_>
        <_>
          9 11 6 9 2.</_></rects>
      <tilted>0</tilted></_>
    <_>
      <rects>
        <_>
          4 6 12 17 -1.</_>
        <_>
          10 6 6 17 2.</_></rects>
      <tilted>0</tilted></_>
    <_>
      <rects>
        <_>
          6 8 6 5 -1.</_>
        <_>
          9 8 3 5 2.</_></rects>
      <tilted>0</tilted></_>
    <_>
      <rects>
        <_>
          7 3 7 12 -1.</_>
        <_>
          7 9 7 6 2.</_></rects>
      <tilted>0</tilted></_>
    <_>
      <rects>
        <_>
          12 3 9 19 -1.</_>
        <_>
          15 3 3 19 3.</_></rects>
      <tilted>0</tilted></_>
    <_>
      <rects>
        <_>
          18 12 2 12 -1.</_>
        <_>
          18 16 2 4 3.</_></rects>
      <tilted>0</tilted></_>
    <_>
      <rects>
        <_>
          22 11 1 12 -1.</_>
        <_>
          22 17 1 6 2.</_></rects>
      <tilted>0</tilted></_></features></cascade>
</opencv_storage>
