<?xml version="1.0"?>
<opencv_storage>
<cascade>
  <stageType>BOOST</stageType>
  <featureType>HAAR</featureType>
  <height>24</height>
  <width>24</width>
  <stageParams>
    <boostType>GAB</boostType>
    <minHitRate>9.9500000476837158e-01</minHitRate>
    <maxFalseAlarm>5.0000000000000000e-01</maxFalseAlarm>
    <weightTrimRate>9.4999998807907104e-01</weightTrimRate>
    <maxDepth>1</maxDepth>
    <maxWeakCount>100</maxWeakCount></stageParams>
  <featureParams>
    <maxCatCount>0</maxCatCount>
    <featSize>1</featSize>
    <mode>BASIC</mode></featureParams>
  <stageNum>15</stageNum>
  <stages>
    <!-- stage 0 -->
    <_>
      <maxWeakCount>3</maxWeakCount>
      <stageThreshold>-1.1242065429687500e+00</stageThreshold>
      <weakClassifiers>
        <_>
          <internalNodes>
            0 -1 16 -7.1685433387756348e-02</internalNodes>
          <leafValues>
            6.0000002384185791e-01 -8.9411765336990356e-01</leafValues></_>
        <_>
          <internalNodes>
            0 -1 27 -1.9651249051094055e-01</internalNodes>
          <leafValues>
            7.8766709566116333e-01 -7.9337620735168457e-01</leafValues></_>
        <_>
          <internalNodes>
            0 -1 29 -1.1292013805359602e-03</internalNodes>
          <leafValues>
            5.6328731775283813e-01 -9.2690962553024292e-01</leafValues></_></weakClassifiers></_>
    <!-- stage 1 -->
    <_>
      <maxWeakCount>2</maxWeakCount>
      <stageThreshold>-4.2558607459068298e-01</stageThreshold>
      <weakClassifiers>
        <_>
          <internalNodes>
            0 -1 35 -4.3164882808923721e-03</internalNodes>
          <leafValues>
            4.5454546809196472e-01 -9.3865031003952026e-01</leafValues></_>
        <_>
          <internalNodes>
            0 -1 32 -2.7265626937150955e-02</internalNodes>
          <leafValues>
            8.4400498867034912e-01 -8.8013154268264771e-01</leafValues></_></weakClassifiers></_>
    <!-- stage 2 -->
    <_>
      <maxWeakCount>3</maxWeakCount>
      <stageThreshold>-1.2248728275299072e+00</stageThreshold>
      <weakClassifiers>
        <_>
          <internalNodes>
            0 -1 7 -2.4653352797031403e-02</internalNodes>
          <leafValues>
            6.0000002384185791e-01 -8.9411765336990356e-01</leafValues></_>
        <_>
          <internalNodes>
            0 -1 20 -3.2790757715702057e-02</internalNodes>
          <leafValues>
            3.6297482252120972e-01 -8.7203866243362427e-01</leafValues></_>
        <_>
          <internalNodes>
            0 -1 24 1.1871969327330589e-02</internalNodes>
          <leafValues>
            -6.9372999668121338e-01 7.5903451442718506e-01</leafValues></_></weakClassifiers></_>
    <!-- stage 3 -->
    <_>
      <maxWeakCount>3</maxWeakCount>
      <stageThreshold>-8.8121122121810913e-01</stageThreshold>
      <weakClassifiers>
        <_>
          <internalNodes>
            0 -1 17 -5.5076494812965393e-02</internalNodes>
          <leafValues>
            8.0000001192092896e-01 -8.6285716295242310e-01</leafValues></_>
        <_>
          <internalNodes>
            0 -1 31 -5.4999805986881256e-02</internalNodes>
          <leafValues>
            5.5474036931991577e-01 -7.9132437705993652e-01</leafValues></_>
        <_>
          <internalNodes>
            0 -1 34 -6.3189836218953133e-03</internalNodes>
          <leafValues>
            7.7705931663513184e-01 -5.7309442758560181e-01</leafValues></_></weakClassifiers></_>
    <!-- stage 4 -->
    <_>
      <maxWeakCount>3</maxWeakCount>
      <stageThreshold>-9.5547741651535034e-01</stageThreshold>
      <weakClassifiers>
        <_>
          <internalNodes>
            0 -1 10 -1.4102470874786377e-01</internalNodes>
          <leafValues>
            4.6666666865348816e-01 -8.8235294818878174e-01</leafValues></_>
        <_>
          <internalNodes>
            0 -1 30 2.4026419967412949e-02</internalNodes>
          <leafValues>
            -7.6378035545349121e-01 7.0864582061767578e-01</leafValues></_>
        <_>
          <internalNodes>
            0 -1 1 -8.1284366548061371e-02</internalNodes>
          <leafValues>
            7.0469152927398682e-01 -6.5836375951766968e-01</leafValues></_></weakClassifiers></_>
    <!-- stage 5 -->
    <_>
      <maxWeakCount>3</maxWeakCount>
      <stageThreshold>-1.1555233001708984e+00</stageThreshold>
      <weakClassifiers>
        <_>
          <internalNodes>
            0 -1 23 5.3421061486005783e-02</internalNodes>
          <leafValues>
            -8.4269660711288452e-01 1.</leafValues></_>
        <_>
          <internalNodes>
            0 -1 9 -1.9381186366081238e-01</internalNodes>
          <leafValues>
            6.8723475933074951e-01 -7.0355075597763062e-01</leafValues></_>
        <_>
          <internalNodes>
            0 -1 39 1.3785802002530545e-04</internalNodes>
          <leafValues>
            3.9072406291961670e-01 -9.3962442874908447e-01</leafValues></_></weakClassifiers></_>
    <!-- stage 6 -->
    <_>
      <maxWeakCount>3</maxWeakCount>
      <stageThreshold>-1.1524955034255981e+00</stageThreshold>
      <weakClassifiers>
        <_>
          <internalNodes>
            0 -1 13 -7.9319544136524200e-02</internalNodes>
          <leafValues>
            8.1818181276321411e-01 -8.7356323003768921e-01</leafValues></_>
        <_>
          <internalNodes>
            0 -1 8 -3.1904980540275574e-02</internalNodes>
          <leafValues>
            7.3537331819534302e-01 -7.0632296800613403e-01</leafValues></_>
        <_>
          <internalNodes>
            0 -1 14 -1.7734004184603691e-02</internalNodes>
          <leafValues>
            4.2739072442054749e-01 -8.5962313413619995e-01</leafValues></_></weakClassifiers></_>
    <!-- stage 7 -->
    <_>
      <maxWeakCount>3</maxWeakCount>
      <stageThreshold>-1.4189429283142090e+00</stageThreshold>
      <weakClassifiers>
        <_>
          <internalNodes>
            0 -1 28 2.3645386099815369e-02</internalNodes>
          <leafValues>
            -8.3240222930908203e-01 1.</leafValues></_>
        <_>
          <internalNodes>
            0 -1 19 9.4095501117408276e-04</internalNodes>
          <leafValues>
            -9.1696345806121826e-01 2.7576816082000732e-01</leafValues></_>
        <_>
          <internalNodes>
            0 -1 11 1.3644590217154473e-04</internalNodes>
          <leafValues>
            -9.6165382862091064e-01 3.3042269945144653e-01</leafValues></_></weakClassifiers></_>
    <!-- stage 8 -->
    <_>
      <maxWeakCount>3</maxWeakCount>
      <stageThreshold>-1.3250304460525513e+00</stageThreshold>
      <weakClassifiers>
        <_>
          <internalNodes>
            0 -1 18 -1.5108886361122131e-01</internalNodes>
          <leafValues>
            1. -8.3240222930908203e-01</leafValues></_>
        <_>
          <internalNodes>
            0 -1 4 1.2134735006839037e-03</internalNodes>
          <leafValues>
            -9.1761070489883423e-01 2.8686323761940002e-01</leafValues></_>
        <_>
          <internalNodes>
            0 -1 2 -6.0830359871033579e-05</internalNodes>
          <leafValues>
            4.2498251795768738e-01 -8.8977581262588501e-01</leafValues></_></weakClassifiers></_>
    <!-- stage 9 -->
    <_>
      <maxWeakCount>2</maxWeakCount>
      <stageThreshold>-6.9385921955108643e-01</stageThreshold>
      <weakClassifiers>
        <_>
          <internalNodes>
            0 -1 21 3.0889306217432022e-02</internalNodes>
          <leafValues>
            -8.2222223281860352e-01 1.</leafValues></_>
        <_>
          <internalNodes>
            0 -1 6 2.3739482276141644e-03</internalNodes>
          <leafValues>
            1.2836296856403351e-01 -1.</leafValues></_></weakClassifiers></_>
    <!-- stage 10 -->
    <_>
      <maxWeakCount>2</maxWeakCount>
      <stageThreshold>-7.2561347484588623e-01</stageThreshold>
      <weakClassifiers>
        <_>
          <internalNodes>
            0 -1 33 -1.6599792242050171e-01</internalNodes>
          <leafValues>
            5.5555558204650879e-01 -8.4090906381607056e-01</leafValues></_>
        <_>
          <internalNodes>
            0 -1 3 -8.0415559932589531e-04</internalNodes>
          <leafValues>
            -1. 1.1529559642076492e-01</leafValues></_></weakClassifiers></_>
    <!-- stage 11 -->
    <_>
      <maxWeakCount>2</maxWeakCount>
      <stageThreshold>-6.2019032239913940e-01</stageThreshold>
      <weakClassifiers>
        <_>
          <internalNodes>
            0 -1 12 -1.0358387231826782e-01</internalNodes>
          <leafValues>
            1. -8.2222223281860352e-01</leafValues></_>
        <_>
          <internalNodes>
            0 -1 0 -1.4335785526782274e-03</internalNodes>
          <leafValues>
            -1. 2.0203188061714172e-01</leafValues></_></weakClassifiers></_>
    <!-- stage 12 -->
    <_>
      <maxWeakCount>3</maxWeakCount>
      <stageThreshold>-1.1653923988342285e+00</stageThreshold>
      <weakClassifiers>
        <_>
          <internalNodes>
            0 -1 36 2.8253945056349039e-03</internalNodes>
          <leafValues>
            -8.4971100091934204e-01 3.3333334326744080e-01</leafValues></_>
        <_>
          <internalNodes>
            0 -1 37 1.1962810531258583e-03</internalNodes>
          <leafValues>
            -7.0513302087783813e-01 4.8757192492485046e-01</leafValues></_>
        <_>
          <internalNodes>
            0 -1 5 -1.4643238682765514e-04</internalNodes>
          <leafValues>
            -9.7078406810760498e-01 3.8945165276527405e-01</leafValues></_></weakClassifiers></_>
    <!-- stage 13 -->
    <_>
      <maxWeakCount>3</maxWeakCount>
      <stageThreshold>-1.1500589847564697e+00</stageThreshold>
      <weakClassifiers>
        <_>
          <internalNodes>
            0 -1 36 2.8629601001739502e-03</internalNodes>
          <leafValues>
            -8.5057473182678223e-01 4.5454546809196472e-01</leafValues></_>
        <_>
          <internalNodes>
            0 -1 38 4.6303588896989822e-03</internalNodes>
          <leafValues>
            -6.6277939081192017e-01 6.0035008192062378e-01</leafValues></_>
        <_>
          <internalNodes>
            0 -1 26 1.3920073397457600e-03</internalNodes>
          <leafValues>
            -8.9983439445495605e-01 4.5151606202125549e-01</leafValues></_></weakClassifiers></_>
    <!-- stage 14 -->
    <_>
      <maxWeakCount>4</maxWeakCount>
      <stageThreshold>-1.0094785690307617e+00</stageThreshold>
      <weakClassifiers>
        <_>
          <internalNodes>
            0 -1 25 1.7478521913290024e-02</internalNodes>
          <leafValues>
            -8.2222223281860352e-01 1.</leafValues></_>
        <_>
          <internalNodes>
            0 -1 22 9.3040696810930967e-04</internalNodes>
          <leafValues>
            -8.5750508308410645e-01 4.2853683233261108e-01</leafValues></_>
        <_>
          <internalNodes>
            0 -1 15 1.0784053301904351e-04</internalNodes>
          <leafValues>
            3.5132375359535217e-01 -8.5136437416076660e-01</leafValues></_>
        <_>
          <internalNodes>
            0 -1 40 1.9853694539051503e-04</internalNodes>
          <leafValues>
            3.1892499327659607e-01 -1.</leafValues></_></weakClassifiers></_></stages>
  <features>
    <_>
      <rects>
        <_>
          0 9 5 6 -1.</_>
        <_>
          0 11 5 2 3.</_></rects>
      <tilted>0</tilted></_>
    <_>
      <rects>
        <_>
          0 9 16 8 -1.</_>
        <_>
          0 13 16 4 2.</_></rects>
      <tilted>0</tilted></_>
    <_>
      <rects>
        <_>
          0 13 7 2 -1.</_>
        <_>
          0 14 7 1 2.</_></rects>
      <tilted>0</tilted></_>
    <_>
      <rects>
        <_>
          0 14 8 2 -1.</_>
        <_>
          0 14 4 1 2.</_>
        <_>
          4 15 4 1 2.</_></rects>
      <tilted>0</tilted></_>
    <_>
      <rects>
        <_>
          1 2 12 8 -1.</_>
        <_>
          1 2 6 4 2.</_>
        <_>
          7 6 6 4 2.</_></rects>
      <tilted>0</tilted></_>
    <_>
      <rects>
        <_>
          1 4 7 3 -1.</_>
        <_>
          1 5 7 1 3.</_></rects>
      <tilted>0</tilted></_>
    <_>
      <rects>
        <_>
          1 8 2 9 -1.</_>
        <_>
          1 11 2 3 3.</_></rects>
      <tilted>0</tilted></_>
    <_>
      <rects>
        <_>
          1 16 18 1 -1.</_>
        <_>
          7 16 6 1 3.</_></rects>
      <tilted>0</tilted></_>
    <_>
      <rects>
        <_>
          2 4 6 19 -1.</_>
        <_>
          4 4 2 19 3.</_></rects>
      <tilted>0</tilted></_>
    <_>
      <rects>
        <_>
          2 10 20 12 -1.</_>
        <_>
          2 16 20 6 2.</_></rects>
      <tilted>0</tilted></_>
    <_>
      <rects>
        <_>
          2 14 21 6 -1.</_>
        <_>
          9 14 7 6 3.</_></rects>
      <tilted>0</tilted></_>
    <_>
      <rects>
        <_>
          3 13 5 3 -1.</_>
        <_>
          3 14 5 1 3.</_></rects>
      <tilted>0</tilted></_>
    <_>
      <rects>
        <_>
          3 16 19 6 -1.</_>
        <_>
          3 19 19 3 2.</_></rects>
      <tilted>0</tilted></_>
    <_>
      <rects>
        <_>
          4 0 6 22 -1.</_>
        <_>
          7 0 3 22 2.</_></rects>
      <tilted>0</tilted></_>
    <_>
      <rects>
        <_>
          4 0 11 8 -1.</_>
        <_>
          4 4 11 4 2.</_></rects>
      <tilted>0</tilted></_>
    <_>
      <rects>
        <_>
          4 7 2 12 -1.</_>
        <_>
          4 7 1 6 2.</_>
        <_>
          5 13 1 6 2.</_></rects>
      <tilted>0</tilted></_>
    <_>
      <rects>
        <_>
          5 6 12 8 -1.</_>
        <_>
          9 6 4 8 3.</_></rects>
      <tilted>0</tilted></_>
    <_>
      <rects>
        <_>
          5 7 12 3 -1.</_>
        <_>
          9 7 4 3 3.</_></rects>
      <tilted>0</tilted></_>
    <_>
      <rects>
        <_>
          5 8 9 15 -1.</_>
        <_>
          8 8 3 15 3.</_></rects>
      <tilted>0</tilted></_>
    <_>
      <rects>
        <_>
          6 1 4 12 -1.</_>
        <_>
          6 5 4 4 3.</_></rects>
      <tilted>0</tilted></_>
    <_>
      <rects>
        <_>
          6 15 16 8 -1.</_>
        <_>
          6 15 8 4 2.</_>
        <_>
          14 19 8 4 2.</_></rects>
      <tilted>0</tilted></_>
    <_>
      <rects>
        <_>
          6 17 14 1 -1.</_>
        <_>
          13 17 7 1 2.</_></rects>
      <tilted>0</tilted></_>
    <_>
      <rects>
        <_>
          7 5 3 3 -1.</_>
        <_>
          7 6 3 1 3.</_></rects>
      <tilted>0</tilted></_>
    <_>
      <rects>
        <_>
          9 0 4 18 -1.</_>
        <_>
          9 0 2 9 2.</_>
        <_>
          11 9 2 9 2.</_></rects>
      <tilted>0</tilted></_>
    <_>
      <rects>
        <_>
          9 3 4 8 -1.</_>
        <_>
          9 3 2 4 2.</_>
        <_>
          11 7 2 4 2.</_></rects>
      <tilted>0</tilted></_>
    <_>
      <rects>
        <_>
          9 8 8 3 -1.</_>
        <_>
          9 9 8 1 3.</_></rects>
      <tilted>0</tilted></_>
    <_>
      <rects>
        <_>
          9 10 6 3 -1.</_>
        <_>
          9 11 6 1 3.</_></rects>
      <tilted>0</tilted></_>
    <_>
      <rects>
        <_>
          9 10 13 14 -1.</_>
        <_>
          9 17 13 7 2.</_></rects>
      <tilted>0</tilted></_>
    <_>
      <rects>
        <_>
          10 0 2 16 -1.</_>
        <_>
          10 0 1 8 2.</_>
        <_>
          11 8 1 8 2.</_></rects>
      <tilted>0</tilted></_>
    <_>
      <rects>
        <_>
          10 3 1 6 -1.</_>
        <_>
          10 6 1 3 2.</_></rects>
      <tilted>0</tilted></_>
    <_>
      <rects>
        <_>
          11 0 6 10 -1.</_>
        <_>
          11 0 3 5 2.</_>
        <_>
          14 5 3 5 2.</_></rects>
      <tilted>0</tilted></_>
    <_>
      <rects>
        <_>
          11 18 13 6 -1.</_>
        <_>
          11 21 13 3 2.</_></rects>
      <tilted>0</tilted></_>
    <_>
      <rects>
        <_>
          12 9 3 8 -1.</_>
        <_>
          12 13 3 4 2.</_></rects>
      <tilted>0</tilted></_>
    <_>
      <rects>
        <_>
          12 16 12 8 -1.</_>
        <_>
          12 20 12 4 2.</_></rects>
      <tilted>0</tilted></_>
    <_>
      <rects>
        <_>
          12 18 4 6 -1.</_>
        <_>
          12 20 4 2 3.</_></rects>
      <tilted>0</tilted></_>
    <_>
      <rects>
        <_>
          13 21 8 2 -1.</_>
        <_>
          13 22 8 1 2.</_></rects>
      <tilted>0</tilted></_>
    <_>
      <rects>
        <_>
          14 4 1 3 -1.</_>
        <_>
          14 5 1 1 3.</_></rects>
      <tilted>0</tilted></_>
    <_>
      <rects>
        <_>
          16 14 2 3 -1.</_>
        <_>
          16 15 2 1 3.</_></rects>
      <tilted>0</tilted></_>
    <_>
      <rects>
        <_>
          17 13 4 2 -1.</_>
        <_>
          19 13 2 2 2.</_></rects>
      <tilted>0</tilted></_>
    <_>
      <rects>
        <_>
          22 0 2 7 -1.</_>
        <_>
          23 0 1 7 2.</_></rects>
      <tilted>0</tilted></_>
    <_>
      <rects>
        <_>
          23 4 1 8 -1.</_>
        <_>
          23 8 1 4 2.</_></rects>
      <tilted>0</tilted></_></features></cascade>
</opencv_storage>
