<?xml version="1.0"?>
<opencv_storage>
<cascade>
  <stageType>BOOST</stageType>
  <featureType>HAAR</featureType>
  <height>24</height>
  <width>24</width>
  <stageParams>
    <boostType>GAB</boostType>
    <minHitRate>9.9500000476837158e-01</minHitRate>
    <maxFalseAlarm>5.0000000000000000e-01</maxFalseAlarm>
    <weightTrimRate>9.4999998807907104e-01</weightTrimRate>
    <maxDepth>1</maxDepth>
    <maxWeakCount>100</maxWeakCount></stageParams>
  <featureParams>
    <maxCatCount>0</maxCatCount>
    <featSize>1</featSize>
    <mode>BASIC</mode></featureParams>
  <stageNum>4</stageNum>
  <stages>
    <!-- stage 0 -->
    <_>
      <maxWeakCount>3</maxWeakCount>
      <stageThreshold>-1.1889424324035645e+00</stageThreshold>
      <weakClassifiers>
        <_>
          <internalNodes>
            0 -1 5 -5.2436113357543945e-02</internalNodes>
          <leafValues>
            1. -9.0476191043853760e-01</leafValues></_>
        <_>
          <internalNodes>
            0 -1 4 -2.7360236272215843e-03</internalNodes>
          <leafValues>
            7.9058808088302612e-01 -9.2418062686920166e-01</leafValues></_>
        <_>
          <internalNodes>
            0 -1 7 -5.3564645349979401e-02</internalNodes>
          <leafValues>
            6.4000004529953003e-01 -1.</leafValues></_></weakClassifiers></_>
    <!-- stage 1 -->
    <_>
      <maxWeakCount>2</maxWeakCount>
      <stageThreshold>-4.6072757244110107e-01</stageThreshold>
      <weakClassifiers>
        <_>
          <internalNodes>
            0 -1 10 -5.6833801791071892e-03</internalNodes>
          <leafValues>
            4.2857143282890320e-01 -9.2500001192092896e-01</leafValues></_>
        <_>
          <internalNodes>
            0 -1 1 -5.2496254444122314e-02</internalNodes>
          <leafValues>
            7.0941734313964844e-01 -8.8929903507232666e-01</leafValues></_></weakClassifiers></_>
    <!-- stage 2 -->
    <_>
      <maxWeakCount>3</maxWeakCount>
      <stageThreshold>-9.8500984907150269e-01</stageThreshold>
      <weakClassifiers>
        <_>
          <internalNodes>
            0 -1 8 1.1255447752773762e-02</internalNodes>
          <leafValues>
            -8.6046510934829712e-01 1.</leafValues></_>
        <_>
          <internalNodes>
            0 -1 6 -2.0406143739819527e-02</internalNodes>
          <leafValues>
            9.1437953710556030e-01 -7.5206208229064941e-01</leafValues></_>
        <_>
          <internalNodes>
            0 -1 3 -4.0627948939800262e-02</internalNodes>
          <leafValues>
            6.2751740217208862e-01 -8.8688737154006958e-01</leafValues></_></weakClassifiers></_>
    <!-- stage 3 -->
    <_>
      <maxWeakCount>3</maxWeakCount>
      <stageThreshold>-1.4024312496185303e+00</stageThreshold>
      <weakClassifiers>
        <_>
          <internalNodes>
            0 -1 0 -1.4138379693031311e-01</internalNodes>
          <leafValues>
            6.6666668653488159e-01 -8.6982250213623047e-01</leafValues></_>
        <_>
          <internalNodes>
            0 -1 9 -2.8178968932479620e-03</internalNodes>
          <leafValues>
            5.3001862764358521e-01 -8.3827161788940430e-01</leafValues></_>
        <_>
          <internalNodes>
            0 -1 2 5.2802879363298416e-03</internalNodes>
          <leafValues>
            -1. 3.0566290020942688e-01</leafValues></_></weakClassifiers></_></stages>
  <features>
    <_>
      <rects>
        <_>
          0 8 15 8 -1.</_>
        <_>
          0 12 15 4 2.</_></rects>
      <tilted>0</tilted></_>
    <_>
      <rects>
        <_>
          3 13 8 9 -1.</_>
        <_>
          7 13 4 9 2.</_></rects>
      <tilted>0</tilted></_>
    <_>
      <rects>
        <_>
          5 0 4 15 -1.</_>
        <_>
          5 5 4 5 3.</_></rects>
      <tilted>0</tilted></_>
    <_>
      <rects>
        <_>
          8 12 16 12 -1.</_>
        <_>
          8 12 8 6 2.</_>
        <_>
          16 18 8 6 2.</_></rects>
      <tilted>0</tilted></_>
    <_>
      <rects>
        <_>
          8 16 2 2 -1.</_>
        <_>
          9 16 1 2 2.</_></rects>
      <tilted>0</tilted></_>
    <_>
      <rects>
        <_>
          9 4 2 16 -1.</_>
        <_>
          9 12 2 8 2.</_></rects>
      <tilted>0</tilted></_>
    <_>
      <rects>
        <_>
          9 12 4 4 -1.</_>
        <_>
          9 14 4 2 2.</_></rects>
      <tilted>0</tilted></_>
    <_>
      <rects>
        <_>
          11 0 3 22 -1.</_>
        <_>
          11 11 3 11 2.</_></rects>
      <tilted>0</tilted></_>
    <_>
      <rects>
        <_>
          11 6 3 4 -1.</_>
        <_>
          12 6 1 4 3.</_></rects>
      <tilted>0</tilted></_>
    <_>
      <rects>
        <_>
          12 11 3 3 -1.</_>
        <_>
          13 11 1 3 3.</_></rects>
      <tilted>0</tilted></_>
    <_>
      <rects>
        <_>
          21 8 2 10 -1.</_>
        <_>
          22 8 1 10 2.</_></rects>
      <tilted>0</tilted></_></features></cascade>
</opencv_storage>
