<?xml version="1.0"?>
<opencv_storage>
<cascade>
  <stageType>BOOST</stageType>
  <featureType>HAAR</featureType>
  <height>24</height>
  <width>24</width>
  <stageParams>
    <boostType>GAB</boostType>
    <minHitRate>9.9500000476837158e-01</minHitRate>
    <maxFalseAlarm>5.0000000000000000e-01</maxFalseAlarm>
    <weightTrimRate>9.4999998807907104e-01</weightTrimRate>
    <maxDepth>1</maxDepth>
    <maxWeakCount>100</maxWeakCount></stageParams>
  <featureParams>
    <maxCatCount>0</maxCatCount>
    <featSize>1</featSize>
    <mode>BASIC</mode></featureParams>
  <stageNum>7</stageNum>
  <stages>
    <!-- stage 0 -->
    <_>
      <maxWeakCount>2</maxWeakCount>
      <stageThreshold>-3.4332674741744995e-01</stageThreshold>
      <weakClassifiers>
        <_>
          <internalNodes>
            0 -1 11 -5.9299405664205551e-02</internalNodes>
          <leafValues>
            8.5714286565780640e-01 -8.9808917045593262e-01</leafValues></_>
        <_>
          <internalNodes>
            0 -1 6 -5.1373936235904694e-02</internalNodes>
          <leafValues>
            5.5476242303848267e-01 -8.7428122758865356e-01</leafValues></_></weakClassifiers></_>
    <!-- stage 1 -->
    <_>
      <maxWeakCount>3</maxWeakCount>
      <stageThreshold>-1.0950816869735718e+00</stageThreshold>
      <weakClassifiers>
        <_>
          <internalNodes>
            0 -1 3 -1.5508580952882767e-02</internalNodes>
          <leafValues>
            1. -8.6335402727127075e-01</leafValues></_>
        <_>
          <internalNodes>
            0 -1 16 1.6248212195932865e-03</internalNodes>
          <leafValues>
            -8.5131025314331055e-01 6.6996181011199951e-01</leafValues></_>
        <_>
          <internalNodes>
            0 -1 17 4.8917206004261971e-04</internalNodes>
          <leafValues>
            -8.0336564779281616e-01 6.1958265304565430e-01</leafValues></_></weakClassifiers></_>
    <!-- stage 2 -->
    <_>
      <maxWeakCount>3</maxWeakCount>
      <stageThreshold>-1.4204863309860229e+00</stageThreshold>
      <weakClassifiers>
        <_>
          <internalNodes>
            0 -1 10 -9.4364415854215622e-03</internalNodes>
          <leafValues>
            1. -8.8679248094558716e-01</leafValues></_>
        <_>
          <internalNodes>
            0 -1 15 4.3987380340695381e-03</internalNodes>
          <leafValues>
            -9.1977858543395996e-01 6.7934727668762207e-01</leafValues></_>
        <_>
          <internalNodes>
            0 -1 0 -2.7921368018724024e-04</internalNodes>
          <leafValues>
            -1. 3.8608479499816895e-01</leafValues></_></weakClassifiers></_>
    <!-- stage 3 -->
    <_>
      <maxWeakCount>3</maxWeakCount>
      <stageThreshold>-8.4508579969406128e-01</stageThreshold>
      <weakClassifiers>
        <_>
          <internalNodes>
            0 -1 9 -4.5571587979793549e-02</internalNodes>
          <leafValues>
            1. -8.7500000000000000e-01</leafValues></_>
        <_>
          <internalNodes>
            0 -1 19 -2.9312349855899811e-02</internalNodes>
          <leafValues>
            7.0390558242797852e-01 -8.5005193948745728e-01</leafValues></_>
        <_>
          <internalNodes>
            0 -1 14 7.9630039632320404e-02</internalNodes>
          <leafValues>
            -5.9128469228744507e-01 8.7996608018875122e-01</leafValues></_></weakClassifiers></_>
    <!-- stage 4 -->
    <_>
      <maxWeakCount>3</maxWeakCount>
      <stageThreshold>-1.2781723737716675e+00</stageThreshold>
      <weakClassifiers>
        <_>
          <internalNodes>
            0 -1 12 6.0148183256387711e-02</internalNodes>
          <leafValues>
            -8.5185188055038452e-01 1.</leafValues></_>
        <_>
          <internalNodes>
            0 -1 2 -2.5364005565643311e-01</internalNodes>
          <leafValues>
            3.8241139054298401e-01 -9.1448241472244263e-01</leafValues></_>
        <_>
          <internalNodes>
            0 -1 8 -1.0721027851104736e-01</internalNodes>
          <leafValues>
            6.5704035758972168e-01 -8.0873191356658936e-01</leafValues></_></weakClassifiers></_>
    <!-- stage 5 -->
    <_>
      <maxWeakCount>3</maxWeakCount>
      <stageThreshold>-1.2878402471542358e+00</stageThreshold>
      <weakClassifiers>
        <_>
          <internalNodes>
            0 -1 4 -6.9585673511028290e-02</internalNodes>
          <leafValues>
            1. -8.5185188055038452e-01</leafValues></_>
        <_>
          <internalNodes>
            0 -1 1 -3.0502009391784668e-01</internalNodes>
          <leafValues>
            5.0646114349365234e-01 -8.4630209207534790e-01</leafValues></_>
        <_>
          <internalNodes>
            0 -1 18 -3.0876191885909066e-05</internalNodes>
          <leafValues>
            -1. 4.1031366586685181e-01</leafValues></_></weakClassifiers></_>
    <!-- stage 6 -->
    <_>
      <maxWeakCount>3</maxWeakCount>
      <stageThreshold>-6.2417548894882202e-01</stageThreshold>
      <weakClassifiers>
        <_>
          <internalNodes>
            0 -1 7 -2.1156224608421326e-01</internalNodes>
          <leafValues>
            1. -8.5185188055038452e-01</leafValues></_>
        <_>
          <internalNodes>
            0 -1 5 -1.5039676427841187e-01</internalNodes>
          <leafValues>
            8.7221556901931763e-01 -7.3988139629364014e-01</leafValues></_>
        <_>
          <internalNodes>
            0 -1 13 -5.6666918098926544e-02</internalNodes>
          <leafValues>
            9.6755778789520264e-01 -5.3991818428039551e-01</leafValues></_></weakClassifiers></_></stages>
  <features>
    <_>
      <rects>
        <_>
          0 0 6 6 -1.</_>
        <_>
          0 2 6 2 3.</_></rects>
      <tilted>0</tilted></_>
    <_>
      <rects>
        <_>
          0 0 24 24 -1.</_>
        <_>
          12 0 12 24 2.</_></rects>
      <tilted>0</tilted></_>
    <_>
      <rects>
        <_>
          0 8 24 16 -1.</_>
        <_>
          0 16 24 8 2.</_></rects>
      <tilted>0</tilted></_>
    <_>
      <rects>
        <_>
          0 12 12 2 -1.</_>
        <_>
          0 12 6 1 2.</_>
        <_>
          6 13 6 1 2.</_></rects>
      <tilted>0</tilted></_>
    <_>
      <rects>
        <_>
          1 7 10 10 -1.</_>
        <_>
          6 7 5 10 2.</_></rects>
      <tilted>0</tilted></_>
    <_>
      <rects>
        <_>
          4 11 18 7 -1.</_>
        <_>
          10 11 6 7 3.</_></rects>
      <tilted>0</tilted></_>
    <_>
      <rects>
        <_>
          5 6 12 7 -1.</_>
        <_>
          11 6 6 7 2.</_></rects>
      <tilted>0</tilted></_>
    <_>
      <rects>
        <_>
          6 5 18 8 -1.</_>
        <_>
          15 5 9 8 2.</_></rects>
      <tilted>0</tilted></_>
    <_>
      <rects>
        <_>
          7 0 10 16 -1.</_>
        <_>
          7 8 10 8 2.</_></rects>
      <tilted>0</tilted></_>
    <_>
      <rects>
        <_>
          7 11 11 6 -1.</_>
        <_>
          7 13 11 2 3.</_></rects>
      <tilted>0</tilted></_>
    <_>
      <rects>
        <_>
          8 12 4 3 -1.</_>
        <_>
          8 13 4 1 3.</_></rects>
      <tilted>0</tilted></_>
    <_>
      <rects>
        <_>
          9 6 3 12 -1.</_>
        <_>
          9 12 3 6 2.</_></rects>
      <tilted>0</tilted></_>
    <_>
      <rects>
        <_>
          9 6 9 16 -1.</_>
        <_>
          12 6 3 16 3.</_></rects>
      <tilted>0</tilted></_>
    <_>
      <rects>
        <_>
          10 17 14 5 -1.</_>
        <_>
          17 17 7 5 2.</_></rects>
      <tilted>0</tilted></_>
    <_>
      <rects>
        <_>
          12 2 12 20 -1.</_>
        <_>
          16 2 4 20 3.</_></rects>
      <tilted>0</tilted></_>
    <_>
      <rects>
        <_>
          13 5 2 10 -1.</_>
        <_>
          13 5 1 5 2.</_>
        <_>
          14 10 1 5 2.</_></rects>
      <tilted>0</tilted></_>
    <_>
      <rects>
        <_>
          13 8 4 1 -1.</_>
        <_>
          15 8 2 1 2.</_></rects>
      <tilted>0</tilted></_>
    <_>
      <rects>
        <_>
          15 5 3 5 -1.</_>
        <_>
          16 5 1 5 3.</_></rects>
      <tilted>0</tilted></_>
    <_>
      <rects>
        <_>
          18 8 1 3 -1.</_>
        <_>
          18 9 1 1 3.</_></rects>
      <tilted>0</tilted></_>
    <_>
      <rects>
        <_>
          21 14 3 10 -1.</_>
        <_>
          21 19 3 5 2.</_></rects>
      <tilted>0</tilted></_></features></cascade>
</opencv_storage>
