<?xml version="1.0"?>
<opencv_storage>
<cascade>
  <stageType>BOOST</stageType>
  <featureType>HAAR</featureType>
  <height>24</height>
  <width>24</width>
  <stageParams>
    <boostType>GAB</boostType>
    <minHitRate>9.9500000476837158e-01</minHitRate>
    <maxFalseAlarm>5.0000000000000000e-01</maxFalseAlarm>
    <weightTrimRate>9.4999998807907104e-01</weightTrimRate>
    <maxDepth>1</maxDepth>
    <maxWeakCount>100</maxWeakCount></stageParams>
  <featureParams>
    <maxCatCount>0</maxCatCount>
    <featSize>1</featSize>
    <mode>BASIC</mode></featureParams>
  <stageNum>17</stageNum>
  <stages>
    <!-- stage 0 -->
    <_>
      <maxWeakCount>3</maxWeakCount>
      <stageThreshold>-1.0336922407150269e+00</stageThreshold>
      <weakClassifiers>
        <_>
          <internalNodes>
            0 -1 2 -3.5607360303401947e-02</internalNodes>
          <leafValues>
            1. -8.6363637447357178e-01</leafValues></_>
        <_>
          <internalNodes>
            0 -1 29 -6.5735699608922005e-03</internalNodes>
          <leafValues>
            6.9812649488449097e-01 -8.0362719297409058e-01</leafValues></_>
        <_>
          <internalNodes>
            0 -1 45 -7.1510197594761848e-03</internalNodes>
          <leafValues>
            6.3357126712799072e-01 -8.5327446460723877e-01</leafValues></_></weakClassifiers></_>
    <!-- stage 1 -->
    <_>
      <maxWeakCount>3</maxWeakCount>
      <stageThreshold>-8.6757045984268188e-01</stageThreshold>
      <weakClassifiers>
        <_>
          <internalNodes>
            0 -1 24 -1.8311887979507446e-02</internalNodes>
          <leafValues>
            5.7142859697341919e-01 -8.7209302186965942e-01</leafValues></_>
        <_>
          <internalNodes>
            0 -1 33 1.5888571739196777e-02</internalNodes>
          <leafValues>
            -7.8141081333160400e-01 5.5004543066024780e-01</leafValues></_>
        <_>
          <internalNodes>
            0 -1 23 2.2489741444587708e-02</internalNodes>
          <leafValues>
            -5.4552286863327026e-01 9.0657114982604980e-01</leafValues></_></weakClassifiers></_>
    <!-- stage 2 -->
    <_>
      <maxWeakCount>3</maxWeakCount>
      <stageThreshold>-1.0050381422042847e+00</stageThreshold>
      <weakClassifiers>
        <_>
          <internalNodes>
            0 -1 25 -6.5819479525089264e-02</internalNodes>
          <leafValues>
            1. -8.4269660711288452e-01</leafValues></_>
        <_>
          <internalNodes>
            0 -1 19 -4.2900972068309784e-02</internalNodes>
          <leafValues>
            8.8361072540283203e-01 -7.1301323175430298e-01</leafValues></_>
        <_>
          <internalNodes>
            0 -1 6 -3.0880626291036606e-03</internalNodes>
          <leafValues>
            5.5067169666290283e-01 -8.6513596773147583e-01</leafValues></_></weakClassifiers></_>
    <!-- stage 3 -->
    <_>
      <maxWeakCount>3</maxWeakCount>
      <stageThreshold>-9.3490505218505859e-01</stageThreshold>
      <weakClassifiers>
        <_>
          <internalNodes>
            0 -1 34 -2.1593045443296432e-02</internalNodes>
          <leafValues>
            1. -8.4269660711288452e-01</leafValues></_>
        <_>
          <internalNodes>
            0 -1 27 -9.6965178847312927e-02</internalNodes>
          <leafValues>
            3.9067468047142029e-01 -7.9007232189178467e-01</leafValues></_>
        <_>
          <internalNodes>
            0 -1 13 8.2640491425991058e-02</internalNodes>
          <leafValues>
            -4.8288312554359436e-01 8.5996055603027344e-01</leafValues></_></weakClassifiers></_>
    <!-- stage 4 -->
    <_>
      <maxWeakCount>3</maxWeakCount>
      <stageThreshold>-1.3764485120773315e+00</stageThreshold>
      <weakClassifiers>
        <_>
          <internalNodes>
            0 -1 10 -1.4741508662700653e-01</internalNodes>
          <leafValues>
            1. -8.4269660711288452e-01</leafValues></_>
        <_>
          <internalNodes>
            0 -1 18 -5.0491136498749256e-03</internalNodes>
          <leafValues>
            4.2690166831016541e-01 -8.5497403144836426e-01</leafValues></_>
        <_>
          <internalNodes>
            0 -1 4 3.0047463951632380e-04</internalNodes>
          <leafValues>
            3.2122209668159485e-01 -1.</leafValues></_></weakClassifiers></_>
    <!-- stage 5 -->
    <_>
      <maxWeakCount>3</maxWeakCount>
      <stageThreshold>-1.4128813743591309e+00</stageThreshold>
      <weakClassifiers>
        <_>
          <internalNodes>
            0 -1 5 -1.2922395765781403e-01</internalNodes>
          <leafValues>
            1. -8.5310733318328857e-01</leafValues></_>
        <_>
          <internalNodes>
            0 -1 18 -4.6292869374155998e-03</internalNodes>
          <leafValues>
            2.4597208201885223e-01 -9.1493856906890869e-01</leafValues></_>
        <_>
          <internalNodes>
            0 -1 11 -1.1191098019480705e-04</internalNodes>
          <leafValues>
            -1. 3.5516455769538879e-01</leafValues></_></weakClassifiers></_>
    <!-- stage 6 -->
    <_>
      <maxWeakCount>3</maxWeakCount>
      <stageThreshold>-1.4946675300598145e+00</stageThreshold>
      <weakClassifiers>
        <_>
          <internalNodes>
            0 -1 14 -2.5250715017318726e-01</internalNodes>
          <leafValues>
            6.6666668653488159e-01 -8.6206895112991333e-01</leafValues></_>
        <_>
          <internalNodes>
            0 -1 4 -9.3478814233094454e-04</internalNodes>
          <leafValues>
            -9.1453003883361816e-01 2.3632514476776123e-01</leafValues></_>
        <_>
          <internalNodes>
            0 -1 7 -5.6965311523526907e-04</internalNodes>
          <leafValues>
            -8.6892366409301758e-01 3.6269053816795349e-01</leafValues></_></weakClassifiers></_>
    <!-- stage 7 -->
    <_>
      <maxWeakCount>2</maxWeakCount>
      <stageThreshold>-6.6037839651107788e-01</stageThreshold>
      <weakClassifiers>
        <_>
          <internalNodes>
            0 -1 30 1.8426874279975891e-01</internalNodes>
          <leafValues>
            -8.3240222930908203e-01 1.</leafValues></_>
        <_>
          <internalNodes>
            0 -1 20 -6.2701466958969831e-05</internalNodes>
          <leafValues>
            1.7202384769916534e-01 -1.</leafValues></_></weakClassifiers></_>
    <!-- stage 8 -->
    <_>
      <maxWeakCount>3</maxWeakCount>
      <stageThreshold>-1.2235960960388184e+00</stageThreshold>
      <weakClassifiers>
        <_>
          <internalNodes>
            0 -1 39 -2.5986015796661377e-02</internalNodes>
          <leafValues>
            6.0000002384185791e-01 -8.4090906381607056e-01</leafValues></_>
        <_>
          <internalNodes>
            0 -1 28 8.7617710232734680e-02</internalNodes>
          <leafValues>
            -7.2713601589202881e-01 6.6851252317428589e-01</leafValues></_>
        <_>
          <internalNodes>
            0 -1 22 1.6867003869265318e-03</internalNodes>
          <leafValues>
            3.4444895386695862e-01 -1.</leafValues></_></weakClassifiers></_>
    <!-- stage 9 -->
    <_>
      <maxWeakCount>2</maxWeakCount>
      <stageThreshold>-5.4613375663757324e-01</stageThreshold>
      <weakClassifiers>
        <_>
          <internalNodes>
            0 -1 38 -1.0506405495107174e-02</internalNodes>
          <leafValues>
            1. -8.2222223281860352e-01</leafValues></_>
        <_>
          <internalNodes>
            0 -1 41 1.3330623914953321e-04</internalNodes>
          <leafValues>
            -1. 2.7608844637870789e-01</leafValues></_></weakClassifiers></_>
    <!-- stage 10 -->
    <_>
      <maxWeakCount>3</maxWeakCount>
      <stageThreshold>-1.3963315486907959e+00</stageThreshold>
      <weakClassifiers>
        <_>
          <internalNodes>
            0 -1 3 -1.0627530515193939e-01</internalNodes>
          <leafValues>
            1. -8.3240222930908203e-01</leafValues></_>
        <_>
          <internalNodes>
            0 -1 21 -8.5056017269380391e-05</internalNodes>
          <leafValues>
            -8.4745132923126221e-01 3.1232300400733948e-01</leafValues></_>
        <_>
          <internalNodes>
            0 -1 17 -2.6014247850980610e-05</internalNodes>
          <leafValues>
            -1. 2.8352203965187073e-01</leafValues></_></weakClassifiers></_>
    <!-- stage 11 -->
    <_>
      <maxWeakCount>2</maxWeakCount>
      <stageThreshold>-7.9542440176010132e-01</stageThreshold>
      <weakClassifiers>
        <_>
          <internalNodes>
            0 -1 31 2.5607757270336151e-02</internalNodes>
          <leafValues>
            -8.4090906381607056e-01 6.0000002384185791e-01</leafValues></_>
        <_>
          <internalNodes>
            0 -1 26 -6.0312246205285192e-05</internalNodes>
          <leafValues>
            -1. 4.5484665781259537e-02</leafValues></_></weakClassifiers></_>
    <!-- stage 12 -->
    <_>
      <maxWeakCount>2</maxWeakCount>
      <stageThreshold>-7.0090895891189575e-01</stageThreshold>
      <weakClassifiers>
        <_>
          <internalNodes>
            0 -1 8 -5.1714777946472168e-02</internalNodes>
          <leafValues>
            1. -8.1215471029281616e-01</leafValues></_>
        <_>
          <internalNodes>
            0 -1 44 -3.0279406928457320e-04</internalNodes>
          <leafValues>
            -1. 1.1124576628208160e-01</leafValues></_></weakClassifiers></_>
    <!-- stage 13 -->
    <_>
      <maxWeakCount>3</maxWeakCount>
      <stageThreshold>-1.1378016471862793e+00</stageThreshold>
      <weakClassifiers>
        <_>
          <internalNodes>
            0 -1 36 -1.7452120780944824e-02</internalNodes>
          <leafValues>
            1. -8.2222223281860352e-01</leafValues></_>
        <_>
          <internalNodes>
            0 -1 44 2.6343390345573425e-04</internalNodes>
          <leafValues>
            3.6937856674194336e-01 -7.9083096981048584e-01</leafValues></_>
        <_>
          <internalNodes>
            0 -1 43 8.0375401303172112e-03</internalNodes>
          <leafValues>
            -6.8495798110961914e-01 5.1551240682601929e-01</leafValues></_></weakClassifiers></_>
    <!-- stage 14 -->
    <_>
      <maxWeakCount>4</maxWeakCount>
      <stageThreshold>-9.9146604537963867e-01</stageThreshold>
      <weakClassifiers>
        <_>
          <internalNodes>
            0 -1 37 -1.9212868064641953e-02</internalNodes>
          <leafValues>
            3.3333334326744080e-01 -8.5964912176132202e-01</leafValues></_>
        <_>
          <internalNodes>
            0 -1 21 -7.4391122325323522e-05</internalNodes>
          <leafValues>
            -8.7232536077499390e-01 2.6005771756172180e-01</leafValues></_>
        <_>
          <internalNodes>
            0 -1 15 -1.3921366189606488e-04</internalNodes>
          <leafValues>
            3.5389435291290283e-01 -8.0202060937881470e-01</leafValues></_>
        <_>
          <internalNodes>
            0 -1 0 -7.6797530055046082e-02</internalNodes>
          <leafValues>
            5.3967833518981934e-01 -7.4576896429061890e-01</leafValues></_></weakClassifiers></_>
    <!-- stage 15 -->
    <_>
      <maxWeakCount>4</maxWeakCount>
      <stageThreshold>-1.1195372343063354e+00</stageThreshold>
      <weakClassifiers>
        <_>
          <internalNodes>
            0 -1 32 -5.8938423171639442e-03</internalNodes>
          <leafValues>
            5.5555558204650879e-01 -8.3050847053527832e-01</leafValues></_>
        <_>
          <internalNodes>
            0 -1 9 -2.0416252315044403e-02</internalNodes>
          <leafValues>
            2.8512439131736755e-01 -7.9815816879272461e-01</leafValues></_>
        <_>
          <internalNodes>
            0 -1 12 8.4464304381981492e-04</internalNodes>
          <leafValues>
            3.5489952564239502e-01 -8.9682745933532715e-01</leafValues></_>
        <_>
          <internalNodes>
            0 -1 16 -1.7691618995741010e-04</internalNodes>
          <leafValues>
            -9.0025585889816284e-01 3.2267427444458008e-01</leafValues></_></weakClassifiers></_>
    <!-- stage 16 -->
    <_>
      <maxWeakCount>4</maxWeakCount>
      <stageThreshold>-1.0102882385253906e+00</stageThreshold>
      <weakClassifiers>
        <_>
          <internalNodes>
            0 -1 35 -2.8710733167827129e-03</internalNodes>
          <leafValues>
            6.3636362552642822e-01 -8.5142856836318970e-01</leafValues></_>
        <_>
          <internalNodes>
            0 -1 40 9.0527819702401757e-04</internalNodes>
          <leafValues>
            -7.8999131917953491e-01 3.1092470884323120e-01</leafValues></_>
        <_>
          <internalNodes>
            0 -1 1 -6.4272855524905026e-05</internalNodes>
          <leafValues>
            -1. 2.8675708174705505e-01</leafValues></_>
        <_>
          <internalNodes>
            0 -1 42 -1.3449112884700298e-04</internalNodes>
          <leafValues>
            4.2630946636199951e-01 -7.5654149055480957e-01</leafValues></_></weakClassifiers></_></stages>
  <features>
    <_>
      <rects>
        <_>
          0 3 13 14 -1.</_>
        <_>
          0 10 13 7 2.</_></rects>
      <tilted>0</tilted></_>
    <_>
      <rects>
        <_>
          0 4 3 2 -1.</_>
        <_>
          1 4 1 2 3.</_></rects>
      <tilted>0</tilted></_>
    <_>
      <rects>
        <_>
          0 4 15 6 -1.</_>
        <_>
          0 6 15 2 3.</_></rects>
      <tilted>0</tilted></_>
    <_>
      <rects>
        <_>
          0 5 18 3 -1.</_>
        <_>
          6 5 6 3 3.</_></rects>
      <tilted>0</tilted></_>
    <_>
      <rects>
        <_>
          0 7 2 12 -1.</_>
        <_>
          0 7 1 6 2.</_>
        <_>
          1 13 1 6 2.</_></rects>
      <tilted>0</tilted></_>
    <_>
      <rects>
        <_>
          0 11 12 12 -1.</_>
        <_>
          6 11 6 12 2.</_></rects>
      <tilted>0</tilted></_>
    <_>
      <rects>
        <_>
          0 15 7 6 -1.</_>
        <_>
          0 18 7 3 2.</_></rects>
      <tilted>0</tilted></_>
    <_>
      <rects>
        <_>
          1 0 6 3 -1.</_>
        <_>
          3 0 2 3 3.</_></rects>
      <tilted>0</tilted></_>
    <_>
      <rects>
        <_>
          1 6 18 1 -1.</_>
        <_>
          7 6 6 1 3.</_></rects>
      <tilted>0</tilted></_>
    <_>
      <rects>
        <_>
          1 7 16 8 -1.</_>
        <_>
          1 7 8 4 2.</_>
        <_>
          9 11 8 4 2.</_></rects>
      <tilted>0</tilted></_>
    <_>
      <rects>
        <_>
          1 16 18 7 -1.</_>
        <_>
          7 16 6 7 3.</_></rects>
      <tilted>0</tilted></_>
    <_>
      <rects>
        <_>
          2 0 2 8 -1.</_>
        <_>
          2 0 1 4 2.</_>
        <_>
          3 4 1 4 2.</_></rects>
      <tilted>0</tilted></_>
    <_>
      <rects>
        <_>
          2 3 9 3 -1.</_>
        <_>
          2 4 9 1 3.</_></rects>
      <tilted>0</tilted></_>
    <_>
      <rects>
        <_>
          2 7 12 12 -1.</_>
        <_>
          6 7 4 12 3.</_></rects>
      <tilted>0</tilted></_>
    <_>
      <rects>
        <_>
          3 0 10 22 -1.</_>
        <_>
          3 11 10 11 2.</_></rects>
      <tilted>0</tilted></_>
    <_>
      <rects>
        <_>
          3 7 18 2 -1.</_>
        <_>
          3 7 9 1 2.</_>
        <_>
          12 8 9 1 2.</_></rects>
      <tilted>0</tilted></_>
    <_>
      <rects>
        <_>
          3 17 2 4 -1.</_>
        <_>
          3 17 1 2 2.</_>
        <_>
          4 19 1 2 2.</_></rects>
      <tilted>0</tilted></_>
    <_>
      <rects>
        <_>
          4 1 6 2 -1.</_>
        <_>
          6 1 2 2 3.</_></rects>
      <tilted>0</tilted></_>
    <_>
      <rects>
        <_>
          4 7 18 2 -1.</_>
        <_>
          4 7 9 1 2.</_>
        <_>
          13 8 9 1 2.</_></rects>
      <tilted>0</tilted></_>
    <_>
      <rects>
        <_>
          4 10 18 2 -1.</_>
        <_>
          10 10 6 2 3.</_></rects>
      <tilted>0</tilted></_>
    <_>
      <rects>
        <_>
          4 18 1 2 -1.</_>
        <_>
          4 19 1 1 2.</_></rects>
      <tilted>0</tilted></_>
    <_>
      <rects>
        <_>
          4 18 1 3 -1.</_>
        <_>
          4 19 1 1 3.</_></rects>
      <tilted>0</tilted></_>
    <_>
      <rects>
        <_>
          5 12 2 9 -1.</_>
        <_>
          5 15 2 3 3.</_></rects>
      <tilted>0</tilted></_>
    <_>
      <rects>
        <_>
          6 2 10 6 -1.</_>
        <_>
          6 2 5 3 2.</_>
        <_>
          11 5 5 3 2.</_></rects>
      <tilted>0</tilted></_>
    <_>
      <rects>
        <_>
          6 19 14 4 -1.</_>
        <_>
          6 19 7 2 2.</_>
        <_>
          13 21 7 2 2.</_></rects>
      <tilted>0</tilted></_>
    <_>
      <rects>
        <_>
          7 0 5 10 -1.</_>
        <_>
          7 5 5 5 2.</_></rects>
      <tilted>0</tilted></_>
    <_>
      <rects>
        <_>
          7 1 1 6 -1.</_>
        <_>
          7 3 1 2 3.</_></rects>
      <tilted>0</tilted></_>
    <_>
      <rects>
        <_>
          7 8 16 16 -1.</_>
        <_>
          7 8 8 8 2.</_>
        <_>
          15 16 8 8 2.</_></rects>
      <tilted>0</tilted></_>
    <_>
      <rects>
        <_>
          8 3 15 13 -1.</_>
        <_>
          13 3 5 13 3.</_></rects>
      <tilted>0</tilted></_>
    <_>
      <rects>
        <_>
          8 9 9 1 -1.</_>
        <_>
          11 9 3 1 3.</_></rects>
      <tilted>0</tilted></_>
    <_>
      <rects>
        <_>
          8 14 16 8 -1.</_>
        <_>
          16 14 8 8 2.</_></rects>
      <tilted>0</tilted></_>
    <_>
      <rects>
        <_>
          8 18 14 1 -1.</_>
        <_>
          15 18 7 1 2.</_></rects>
      <tilted>0</tilted></_>
    <_>
      <rects>
        <_>
          9 2 1 4 -1.</_>
        <_>
          9 4 1 2 2.</_></rects>
      <tilted>0</tilted></_>
    <_>
      <rects>
        <_>
          9 5 9 6 -1.</_>
        <_>
          9 7 9 2 3.</_></rects>
      <tilted>0</tilted></_>
    <_>
      <rects>
        <_>
          9 20 15 2 -1.</_>
        <_>
          9 21 15 1 2.</_></rects>
      <tilted>0</tilted></_>
    <_>
      <rects>
        <_>
          10 18 3 1 -1.</_>
        <_>
          11 18 1 1 3.</_></rects>
      <tilted>0</tilted></_>
    <_>
      <rects>
        <_>
          11 1 1 12 -1.</_>
        <_>
          11 5 1 4 3.</_></rects>
      <tilted>0</tilted></_>
    <_>
      <rects>
        <_>
          11 1 4 16 -1.</_>
        <_>
          11 1 2 8 2.</_>
        <_>
          13 9 2 8 2.</_></rects>
      <tilted>0</tilted></_>
    <_>
      <rects>
        <_>
          11 2 2 7 -1.</_>
        <_>
          12 2 1 7 2.</_></rects>
      <tilted>0</tilted></_>
    <_>
      <rects>
        <_>
          11 2 1 18 -1.</_>
        <_>
          11 11 1 9 2.</_></rects>
      <tilted>0</tilted></_>
    <_>
      <rects>
        <_>
          12 4 6 4 -1.</_>
        <_>
          12 4 3 2 2.</_>
        <_>
          15 6 3 2 2.</_></rects>
      <tilted>0</tilted></_>
    <_>
      <rects>
        <_>
          12 14 2 3 -1.</_>
        <_>
          12 15 2 1 3.</_></rects>
      <tilted>0</tilted></_>
    <_>
      <rects>
        <_>
          12 16 1 2 -1.</_>
        <_>
          12 17 1 1 2.</_></rects>
      <tilted>0</tilted></_>
    <_>
      <rects>
        <_>
          13 12 6 12 -1.</_>
        <_>
          15 12 2 12 3.</_></rects>
      <tilted>0</tilted></_>
    <_>
      <rects>
        <_>
          17 1 1 6 -1.</_>
        <_>
          17 3 1 2 3.</_></rects>
      <tilted>0</tilted></_>
    <_>
      <rects>
        <_>
          17 16 7 6 -1.</_>
        <_>
          17 19 7 3 2.</_></rects>
      <tilted>0</tilted></_></features></cascade>
</opencv_storage>
