<?xml version="1.0"?>
<opencv_storage>
<cascade>
  <stageType>BOOST</stageType>
  <featureType>HAAR</featureType>
  <height>24</height>
  <width>24</width>
  <stageParams>
    <boostType>GAB</boostType>
    <minHitRate>9.9500000476837158e-01</minHitRate>
    <maxFalseAlarm>5.0000000000000000e-01</maxFalseAlarm>
    <weightTrimRate>9.4999998807907104e-01</weightTrimRate>
    <maxDepth>1</maxDepth>
    <maxWeakCount>100</maxWeakCount></stageParams>
  <featureParams>
    <maxCatCount>0</maxCatCount>
    <featSize>1</featSize>
    <mode>BASIC</mode></featureParams>
  <stageNum>18</stageNum>
  <stages>
    <!-- stage 0 -->
    <_>
      <maxWeakCount>3</maxWeakCount>
      <stageThreshold>-1.3460458517074585e+00</stageThreshold>
      <weakClassifiers>
        <_>
          <internalNodes>
            0 -1 23 -3.9851102977991104e-02</internalNodes>
          <leafValues>
            7.3333334922790527e-01 -8.7283235788345337e-01</leafValues></_>
        <_>
          <internalNodes>
            0 -1 15 -1.5634080395102501e-02</internalNodes>
          <leafValues>
            2.9170271754264832e-01 -9.0162652730941772e-01</leafValues></_>
        <_>
          <internalNodes>
            0 -1 10 -5.2041187882423401e-03</internalNodes>
          <leafValues>
            4.2841309309005737e-01 -9.5734685659408569e-01</leafValues></_></weakClassifiers></_>
    <!-- stage 1 -->
    <_>
      <maxWeakCount>3</maxWeakCount>
      <stageThreshold>-1.0068917274475098e+00</stageThreshold>
      <weakClassifiers>
        <_>
          <internalNodes>
            0 -1 9 -2.9193695634603500e-02</internalNodes>
          <leafValues>
            7.3333334922790527e-01 -8.7283235788345337e-01</leafValues></_>
        <_>
          <internalNodes>
            0 -1 42 -1.7503701150417328e-02</internalNodes>
          <leafValues>
            7.6334512233734131e-01 -6.6605895757675171e-01</leafValues></_>
        <_>
          <internalNodes>
            0 -1 28 1.5766099095344543e-02</internalNodes>
          <leafValues>
            -8.8969683647155762e-01 5.3199958801269531e-01</leafValues></_></weakClassifiers></_>
    <!-- stage 2 -->
    <_>
      <maxWeakCount>3</maxWeakCount>
      <stageThreshold>-1.0503671169281006e+00</stageThreshold>
      <weakClassifiers>
        <_>
          <internalNodes>
            0 -1 31 -3.7940878421068192e-02</internalNodes>
          <leafValues>
            6.2500000000000000e-01 -8.7209302186965942e-01</leafValues></_>
        <_>
          <internalNodes>
            0 -1 12 -3.1888417899608612e-02</internalNodes>
          <leafValues>
            4.1236782073974609e-01 -8.1882429122924805e-01</leafValues></_>
        <_>
          <internalNodes>
            0 -1 13 -1.8942035734653473e-02</internalNodes>
          <leafValues>
            7.3290145397186279e-01 -5.9064197540283203e-01</leafValues></_></weakClassifiers></_>
    <!-- stage 3 -->
    <_>
      <maxWeakCount>3</maxWeakCount>
      <stageThreshold>-1.0773020982742310e+00</stageThreshold>
      <weakClassifiers>
        <_>
          <internalNodes>
            0 -1 21 -1.1545315384864807e-01</internalNodes>
          <leafValues>
            1. -8.2222223281860352e-01</leafValues></_>
        <_>
          <internalNodes>
            0 -1 51 -9.9246874451637268e-03</internalNodes>
          <leafValues>
            8.9047360420227051e-01 -6.7648261785507202e-01</leafValues></_>
        <_>
          <internalNodes>
            0 -1 0 -3.5134601057507098e-04</internalNodes>
          <leafValues>
            -9.2019075155258179e-01 4.2140278220176697e-01</leafValues></_></weakClassifiers></_>
    <!-- stage 4 -->
    <_>
      <maxWeakCount>3</maxWeakCount>
      <stageThreshold>-1.0945601463317871e+00</stageThreshold>
      <weakClassifiers>
        <_>
          <internalNodes>
            0 -1 45 -1.0914778709411621e-01</internalNodes>
          <leafValues>
            1. -8.3240222930908203e-01</leafValues></_>
        <_>
          <internalNodes>
            0 -1 39 -1.2831656262278557e-02</internalNodes>
          <leafValues>
            7.9607927799224854e-01 -7.1345037221908569e-01</leafValues></_>
        <_>
          <internalNodes>
            0 -1 1 -2.4793174816295505e-04</internalNodes>
          <leafValues>
            -1. 4.5129251480102539e-01</leafValues></_></weakClassifiers></_>
    <!-- stage 5 -->
    <_>
      <maxWeakCount>3</maxWeakCount>
      <stageThreshold>-1.1225717067718506e+00</stageThreshold>
      <weakClassifiers>
        <_>
          <internalNodes>
            0 -1 40 4.0791206061840057e-02</internalNodes>
          <leafValues>
            -8.3240222930908203e-01 1.</leafValues></_>
        <_>
          <internalNodes>
            0 -1 27 5.2155744284391403e-02</internalNodes>
          <leafValues>
            -7.0546507835388184e-01 6.5542298555374146e-01</leafValues></_>
        <_>
          <internalNodes>
            0 -1 25 8.8129239156842232e-04</internalNodes>
          <leafValues>
            4.1529560089111328e-01 -1.</leafValues></_></weakClassifiers></_>
    <!-- stage 6 -->
    <_>
      <maxWeakCount>3</maxWeakCount>
      <stageThreshold>-1.1072918176651001e+00</stageThreshold>
      <weakClassifiers>
        <_>
          <internalNodes>
            0 -1 36 -7.0060573518276215e-02</internalNodes>
          <leafValues>
            1. -8.2222223281860352e-01</leafValues></_>
        <_>
          <internalNodes>
            0 -1 4 -5.7044059038162231e-02</internalNodes>
          <leafValues>
            6.3554954528808594e-01 -8.1117141246795654e-01</leafValues></_>
        <_>
          <internalNodes>
            0 -1 43 -3.3341455855406821e-04</internalNodes>
          <leafValues>
            -8.9656513929367065e-01 5.2610176801681519e-01</leafValues></_></weakClassifiers></_>
    <!-- stage 7 -->
    <_>
      <maxWeakCount>4</maxWeakCount>
      <stageThreshold>-8.2942593097686768e-01</stageThreshold>
      <weakClassifiers>
        <_>
          <internalNodes>
            0 -1 41 -5.9095658361911774e-02</internalNodes>
          <leafValues>
            6.3636362552642822e-01 -8.3050847053527832e-01</leafValues></_>
        <_>
          <internalNodes>
            0 -1 11 -4.7352816909551620e-02</internalNodes>
          <leafValues>
            6.3559556007385254e-01 -6.2983196973800659e-01</leafValues></_>
        <_>
          <internalNodes>
            0 -1 46 -3.6134946276433766e-04</internalNodes>
          <leafValues>
            -1. 3.3921158313751221e-01</leafValues></_>
        <_>
          <internalNodes>
            0 -1 14 9.4710919074714184e-04</internalNodes>
          <leafValues>
            2.9170292615890503e-01 -9.8228985071182251e-01</leafValues></_></weakClassifiers></_>
    <!-- stage 8 -->
    <_>
      <maxWeakCount>3</maxWeakCount>
      <stageThreshold>-1.0284347534179688e+00</stageThreshold>
      <weakClassifiers>
        <_>
          <internalNodes>
            0 -1 6 -2.0241826772689819e-01</internalNodes>
          <leafValues>
            1. -8.2222223281860352e-01</leafValues></_>
        <_>
          <internalNodes>
            0 -1 17 -3.6193720996379852e-02</internalNodes>
          <leafValues>
            6.5196943283081055e-01 -7.0891487598419189e-01</leafValues></_>
        <_>
          <internalNodes>
            0 -1 35 -1.4052158803679049e-04</internalNodes>
          <leafValues>
            5.0270235538482666e-01 -8.6108613014221191e-01</leafValues></_></weakClassifiers></_>
    <!-- stage 9 -->
    <_>
      <maxWeakCount>3</maxWeakCount>
      <stageThreshold>-7.6413065195083618e-01</stageThreshold>
      <weakClassifiers>
        <_>
          <internalNodes>
            0 -1 22 3.4052766859531403e-02</internalNodes>
          <leafValues>
            -8.1215471029281616e-01 1.</leafValues></_>
        <_>
          <internalNodes>
            0 -1 20 -6.0470029711723328e-02</internalNodes>
          <leafValues>
            7.8854304552078247e-01 -6.3286912441253662e-01</leafValues></_>
        <_>
          <internalNodes>
            0 -1 50 1.1647520586848259e-03</internalNodes>
          <leafValues>
            -6.5435361862182617e-01 6.8089312314987183e-01</leafValues></_></weakClassifiers></_>
    <!-- stage 10 -->
    <_>
      <maxWeakCount>4</maxWeakCount>
      <stageThreshold>-1.0518139600753784e+00</stageThreshold>
      <weakClassifiers>
        <_>
          <internalNodes>
            0 -1 34 -7.8842930495738983e-02</internalNodes>
          <leafValues>
            1. -8.1215471029281616e-01</leafValues></_>
        <_>
          <internalNodes>
            0 -1 37 -1.1516831815242767e-01</internalNodes>
          <leafValues>
            4.3462201952934265e-01 -8.5917669534683228e-01</leafValues></_>
        <_>
          <internalNodes>
            0 -1 52 7.1710863267071545e-05</internalNodes>
          <leafValues>
            3.2024791836738586e-01 -9.3761914968490601e-01</leafValues></_>
        <_>
          <internalNodes>
            0 -1 8 -2.8457635198719800e-04</internalNodes>
          <leafValues>
            -1. 2.9926955699920654e-01</leafValues></_></weakClassifiers></_>
    <!-- stage 11 -->
    <_>
      <maxWeakCount>2</maxWeakCount>
      <stageThreshold>-8.1969201564788818e-01</stageThreshold>
      <weakClassifiers>
        <_>
          <internalNodes>
            0 -1 16 -4.6496547758579254e-02</internalNodes>
          <leafValues>
            3.3333334326744080e-01 -8.5882353782653809e-01</leafValues></_>
        <_>
          <internalNodes>
            0 -1 47 -3.2914808252826333e-04</internalNodes>
          <leafValues>
            -1. 3.9131488651037216e-02</leafValues></_></weakClassifiers></_>
    <!-- stage 12 -->
    <_>
      <maxWeakCount>4</maxWeakCount>
      <stageThreshold>-1.0979250669479370e+00</stageThreshold>
      <weakClassifiers>
        <_>
          <internalNodes>
            0 -1 7 -6.7568093538284302e-02</internalNodes>
          <leafValues>
            1. -8.0219781398773193e-01</leafValues></_>
        <_>
          <internalNodes>
            0 -1 44 5.8337245136499405e-03</internalNodes>
          <leafValues>
            -9.2460906505584717e-01 3.9130961894989014e-01</leafValues></_>
        <_>
          <internalNodes>
            0 -1 29 -2.8256121368031017e-05</internalNodes>
          <leafValues>
            2.8818961977958679e-01 -8.4250330924987793e-01</leafValues></_>
        <_>
          <internalNodes>
            0 -1 5 -2.1452840883284807e-04</internalNodes>
          <leafValues>
            -8.3845967054367065e-01 3.4069213271141052e-01</leafValues></_></weakClassifiers></_>
    <!-- stage 13 -->
    <_>
      <maxWeakCount>4</maxWeakCount>
      <stageThreshold>-7.3655021190643311e-01</stageThreshold>
      <weakClassifiers>
        <_>
          <internalNodes>
            0 -1 49 -1.6888257861137390e-01</internalNodes>
          <leafValues>
            7.7777779102325439e-01 -8.2122904062271118e-01</leafValues></_>
        <_>
          <internalNodes>
            0 -1 30 -1.2609174475073814e-02</internalNodes>
          <leafValues>
            5.0662767887115479e-01 -7.1898859739303589e-01</leafValues></_>
        <_>
          <internalNodes>
            0 -1 24 -3.2489857403561473e-05</internalNodes>
          <leafValues>
            3.8075432181358337e-01 -7.8976768255233765e-01</leafValues></_>
        <_>
          <internalNodes>
            0 -1 33 1.2943924230057746e-04</internalNodes>
          <leafValues>
            -7.2889304161071777e-01 4.2291313409805298e-01</leafValues></_></weakClassifiers></_>
    <!-- stage 14 -->
    <_>
      <maxWeakCount>2</maxWeakCount>
      <stageThreshold>-7.0713460445404053e-01</stageThreshold>
      <weakClassifiers>
        <_>
          <internalNodes>
            0 -1 26 1.2808544933795929e-01</internalNodes>
          <leafValues>
            -8.0219781398773193e-01 1.</leafValues></_>
        <_>
          <internalNodes>
            0 -1 3 -3.5493157338351011e-04</internalNodes>
          <leafValues>
            -1. 9.5063209533691406e-02</leafValues></_></weakClassifiers></_>
    <!-- stage 15 -->
    <_>
      <maxWeakCount>2</maxWeakCount>
      <stageThreshold>-6.2023574113845825e-01</stageThreshold>
      <weakClassifiers>
        <_>
          <internalNodes>
            0 -1 32 -2.5018936395645142e-01</internalNodes>
          <leafValues>
            6.0000002384185791e-01 -8.2022470235824585e-01</leafValues></_>
        <_>
          <internalNodes>
            0 -1 2 5.3327257046476007e-04</internalNodes>
          <leafValues>
            1.9998897612094879e-01 -9.5579075813293457e-01</leafValues></_></weakClassifiers></_>
    <!-- stage 16 -->
    <_>
      <maxWeakCount>2</maxWeakCount>
      <stageThreshold>-7.3556041717529297e-01</stageThreshold>
      <weakClassifiers>
        <_>
          <internalNodes>
            0 -1 19 -1.1092720180749893e-01</internalNodes>
          <leafValues>
            6.0000002384185791e-01 -8.2022470235824585e-01</leafValues></_>
        <_>
          <internalNodes>
            0 -1 18 1.1959314579144120e-03</internalNodes>
          <leafValues>
            -9.7362834215164185e-01 8.4664322435855865e-02</leafValues></_></weakClassifiers></_>
    <!-- stage 17 -->
    <_>
      <maxWeakCount>2</maxWeakCount>
      <stageThreshold>-5.8838617801666260e-01</stageThreshold>
      <weakClassifiers>
        <_>
          <internalNodes>
            0 -1 38 -6.3649781048297882e-02</internalNodes>
          <leafValues>
            1. -8.0219781398773193e-01</leafValues></_>
        <_>
          <internalNodes>
            0 -1 48 -4.3973806896246970e-05</internalNodes>
          <leafValues>
            2.1381162106990814e-01 -1.</leafValues></_></weakClassifiers></_></stages>
  <features>
    <_>
      <rects>
        <_>
          0 0 15 1 -1.</_>
        <_>
          5 0 5 1 3.</_></rects>
      <tilted>0</tilted></_>
    <_>
      <rects>
        <_>
          0 6 6 11 -1.</_>
        <_>
          2 6 2 11 3.</_></rects>
      <tilted>0</tilted></_>
    <_>
      <rects>
        <_>
          0 7 2 8 -1.</_>
        <_>
          0 11 2 4 2.</_></rects>
      <tilted>0</tilted></_>
    <_>
      <rects>
        <_>
          0 8 3 9 -1.</_>
        <_>
          0 11 3 3 3.</_></rects>
      <tilted>0</tilted></_>
    <_>
      <rects>
        <_>
          0 8 8 13 -1.</_>
        <_>
          4 8 4 13 2.</_></rects>
      <tilted>0</tilted></_>
    <_>
      <rects>
        <_>
          0 9 8 3 -1.</_>
        <_>
          0 10 8 1 3.</_></rects>
      <tilted>0</tilted></_>
    <_>
      <rects>
        <_>
          0 9 24 4 -1.</_>
        <_>
          8 9 8 4 3.</_></rects>
      <tilted>0</tilted></_>
    <_>
      <rects>
        <_>
          0 10 24 1 -1.</_>
        <_>
          8 10 8 1 3.</_></rects>
      <tilted>0</tilted></_>
    <_>
      <rects>
        <_>
          0 14 10 3 -1.</_>
        <_>
          0 15 10 1 3.</_></rects>
      <tilted>0</tilted></_>
    <_>
      <rects>
        <_>
          0 17 21 1 -1.</_>
        <_>
          7 17 7 1 3.</_></rects>
      <tilted>0</tilted></_>
    <_>
      <rects>
        <_>
          0 18 24 4 -1.</_>
        <_>
          0 20 24 2 2.</_></rects>
      <tilted>0</tilted></_>
    <_>
      <rects>
        <_>
          1 12 11 8 -1.</_>
        <_>
          1 16 11 4 2.</_></rects>
      <tilted>0</tilted></_>
    <_>
      <rects>
        <_>
          2 0 16 11 -1.</_>
        <_>
          10 0 8 11 2.</_></rects>
      <tilted>0</tilted></_>
    <_>
      <rects>
        <_>
          2 2 15 6 -1.</_>
        <_>
          2 4 15 2 3.</_></rects>
      <tilted>0</tilted></_>
    <_>
      <rects>
        <_>
          3 0 4 2 -1.</_>
        <_>
          5 0 2 2 2.</_></rects>
      <tilted>0</tilted></_>
    <_>
      <rects>
        <_>
          3 0 10 10 -1.</_>
        <_>
          3 5 10 5 2.</_></rects>
      <tilted>0</tilted></_>
    <_>
      <rects>
        <_>
          3 9 9 9 -1.</_>
        <_>
          6 9 3 9 3.</_></rects>
      <tilted>0</tilted></_>
    <_>
      <rects>
        <_>
          4 0 9 6 -1.</_>
        <_>
          4 3 9 3 2.</_></rects>
      <tilted>0</tilted></_>
    <_>
      <rects>
        <_>
          4 2 18 6 -1.</_>
        <_>
          4 2 9 3 2.</_>
        <_>
          13 5 9 3 2.</_></rects>
      <tilted>0</tilted></_>
    <_>
      <rects>
        <_>
          4 16 20 8 -1.</_>
        <_>
          4 16 10 4 2.</_>
        <_>
          14 20 10 4 2.</_></rects>
      <tilted>0</tilted></_>
    <_>
      <rects>
        <_>
          4 21 15 3 -1.</_>
        <_>
          9 21 5 3 3.</_></rects>
      <tilted>0</tilted></_>
    <_>
      <rects>
        <_>
          5 3 9 10 -1.</_>
        <_>
          5 8 9 5 2.</_></rects>
      <tilted>0</tilted></_>
    <_>
      <rects>
        <_>
          5 4 14 2 -1.</_>
        <_>
          12 4 7 2 2.</_></rects>
      <tilted>0</tilted></_>
    <_>
      <rects>
        <_>
          5 9 12 3 -1.</_>
        <_>
          9 9 4 3 3.</_></rects>
      <tilted>0</tilted></_>
    <_>
      <rects>
        <_>
          5 17 2 1 -1.</_>
        <_>
          6 17 1 1 2.</_></rects>
      <tilted>0</tilted></_>
    <_>
      <rects>
        <_>
          6 0 10 2 -1.</_>
        <_>
          6 0 5 1 2.</_>
        <_>
          11 1 5 1 2.</_></rects>
      <tilted>0</tilted></_>
    <_>
      <rects>
        <_>
          6 0 10 18 -1.</_>
        <_>
          11 0 5 18 2.</_></rects>
      <tilted>0</tilted></_>
    <_>
      <rects>
        <_>
          6 1 8 22 -1.</_>
        <_>
          6 1 4 11 2.</_>
        <_>
          10 12 4 11 2.</_></rects>
      <tilted>0</tilted></_>
    <_>
      <rects>
        <_>
          6 4 12 9 -1.</_>
        <_>
          12 4 6 9 2.</_></rects>
      <tilted>0</tilted></_>
    <_>
      <rects>
        <_>
          6 6 1 4 -1.</_>
        <_>
          6 8 1 2 2.</_></rects>
      <tilted>0</tilted></_>
    <_>
      <rects>
        <_>
          6 11 18 4 -1.</_>
        <_>
          6 11 9 2 2.</_>
        <_>
          15 13 9 2 2.</_></rects>
      <tilted>0</tilted></_>
    <_>
      <rects>
        <_>
          6 20 17 4 -1.</_>
        <_>
          6 22 17 2 2.</_></rects>
      <tilted>0</tilted></_>
    <_>
      <rects>
        <_>
          7 12 16 12 -1.</_>
        <_>
          7 18 16 6 2.</_></rects>
      <tilted>0</tilted></_>
    <_>
      <rects>
        <_>
          7 15 3 1 -1.</_>
        <_>
          8 15 1 1 3.</_></rects>
      <tilted>0</tilted></_>
    <_>
      <rects>
        <_>
          8 0 6 10 -1.</_>
        <_>
          8 5 6 5 2.</_></rects>
      <tilted>0</tilted></_>
    <_>
      <rects>
        <_>
          8 8 4 2 -1.</_>
        <_>
          8 8 2 1 2.</_>
        <_>
          10 9 2 1 2.</_></rects>
      <tilted>0</tilted></_>
    <_>
      <rects>
        <_>
          9 0 6 23 -1.</_>
        <_>
          11 0 2 23 3.</_></rects>
      <tilted>0</tilted></_>
    <_>
      <rects>
        <_>
          9 2 15 16 -1.</_>
        <_>
          9 10 15 8 2.</_></rects>
      <tilted>0</tilted></_>
    <_>
      <rects>
        <_>
          9 5 14 8 -1.</_>
        <_>
          9 5 7 4 2.</_>
        <_>
          16 9 7 4 2.</_></rects>
      <tilted>0</tilted></_>
    <_>
      <rects>
        <_>
          9 8 5 4 -1.</_>
        <_>
          9 10 5 2 2.</_></rects>
      <tilted>0</tilted></_>
    <_>
      <rects>
        <_>
          9 16 12 2 -1.</_>
        <_>
          15 16 6 2 2.</_></rects>
      <tilted>0</tilted></_>
    <_>
      <rects>
        <_>
          10 4 6 20 -1.</_>
        <_>
          12 4 2 20 3.</_></rects>
      <tilted>0</tilted></_>
    <_>
      <rects>
        <_>
          10 6 11 4 -1.</_>
        <_>
          10 8 11 2 2.</_></rects>
      <tilted>0</tilted></_>
    <_>
      <rects>
        <_>
          11 0 5 2 -1.</_>
        <_>
          11 1 5 1 2.</_></rects>
      <tilted>0</tilted></_>
    <_>
      <rects>
        <_>
          11 8 7 9 -1.</_>
        <_>
          11 11 7 3 3.</_></rects>
      <tilted>0</tilted></_>
    <_>
      <rects>
        <_>
          12 16 10 8 -1.</_>
        <_>
          12 20 10 4 2.</_></rects>
      <tilted>0</tilted></_>
    <_>
      <rects>
        <_>
          15 0 8 3 -1.</_>
        <_>
          15 1 8 1 3.</_></rects>
      <tilted>0</tilted></_>
    <_>
      <rects>
        <_>
          15 1 9 3 -1.</_>
        <_>
          15 2 9 1 3.</_></rects>
      <tilted>0</tilted></_>
    <_>
      <rects>
        <_>
          15 5 1 4 -1.</_>
        <_>
          15 7 1 2 2.</_></rects>
      <tilted>0</tilted></_>
    <_>
      <rects>
        <_>
          15 14 9 10 -1.</_>
        <_>
          15 19 9 5 2.</_></rects>
      <tilted>0</tilted></_>
    <_>
      <rects>
        <_>
          16 10 2 12 -1.</_>
        <_>
          16 10 1 6 2.</_>
        <_>
          17 16 1 6 2.</_></rects>
      <tilted>0</tilted></_>
    <_>
      <rects>
        <_>
          17 20 5 2 -1.</_>
        <_>
          17 21 5 1 2.</_></rects>
      <tilted>0</tilted></_>
    <_>
      <rects>
        <_>
          22 15 2 2 -1.</_>
        <_>
          22 16 2 1 2.</_></rects>
      <tilted>0</tilted></_></features></cascade>
</opencv_storage>
