<?xml version="1.0"?>
<opencv_storage>
<cascade>
  <stageType>BOOST</stageType>
  <featureType>HAAR</featureType>
  <height>24</height>
  <width>24</width>
  <stageParams>
    <boostType>GAB</boostType>
    <minHitRate>9.9500000476837158e-01</minHitRate>
    <maxFalseAlarm>5.0000000000000000e-01</maxFalseAlarm>
    <weightTrimRate>9.4999998807907104e-01</weightTrimRate>
    <maxDepth>1</maxDepth>
    <maxWeakCount>100</maxWeakCount></stageParams>
  <featureParams>
    <maxCatCount>0</maxCatCount>
    <featSize>1</featSize>
    <mode>BASIC</mode></featureParams>
  <stageNum>15</stageNum>
  <stages>
    <!-- stage 0 -->
    <_>
      <maxWeakCount>2</maxWeakCount>
      <stageThreshold>-2.1784116327762604e-01</stageThreshold>
      <weakClassifiers>
        <_>
          <internalNodes>
            0 -1 24 -1.2427725829184055e-02</internalNodes>
          <leafValues>
            6.6666668653488159e-01 -9.1666668653488159e-01</leafValues></_>
        <_>
          <internalNodes>
            0 -1 29 -4.9200775101780891e-03</internalNodes>
          <leafValues>
            7.3671686649322510e-01 -8.8450783491134644e-01</leafValues></_></weakClassifiers></_>
    <!-- stage 1 -->
    <_>
      <maxWeakCount>3</maxWeakCount>
      <stageThreshold>-9.2905676364898682e-01</stageThreshold>
      <weakClassifiers>
        <_>
          <internalNodes>
            0 -1 39 -7.0510700345039368e-02</internalNodes>
          <leafValues>
            8.1818181276321411e-01 -8.6285716295242310e-01</leafValues></_>
        <_>
          <internalNodes>
            0 -1 31 3.1585063785314560e-02</internalNodes>
          <leafValues>
            -8.0801504850387573e-01 5.6842851638793945e-01</leafValues></_>
        <_>
          <internalNodes>
            0 -1 4 -7.3101045563817024e-03</internalNodes>
          <leafValues>
            8.0886548757553101e-01 -6.3462811708450317e-01</leafValues></_></weakClassifiers></_>
    <!-- stage 2 -->
    <_>
      <maxWeakCount>3</maxWeakCount>
      <stageThreshold>-1.4063438177108765e+00</stageThreshold>
      <weakClassifiers>
        <_>
          <internalNodes>
            0 -1 17 -1.3818701729178429e-02</internalNodes>
          <leafValues>
            5.2941179275512695e-01 -8.9349114894866943e-01</leafValues></_>
        <_>
          <internalNodes>
            0 -1 19 -3.3459350466728210e-02</internalNodes>
          <leafValues>
            5.1316362619400024e-01 -8.7669432163238525e-01</leafValues></_>
        <_>
          <internalNodes>
            0 -1 6 -1.1586810648441315e-01</internalNodes>
          <leafValues>
            3.6384156346321106e-01 -9.0459495782852173e-01</leafValues></_></weakClassifiers></_>
    <!-- stage 3 -->
    <_>
      <maxWeakCount>3</maxWeakCount>
      <stageThreshold>-1.2376824617385864e+00</stageThreshold>
      <weakClassifiers>
        <_>
          <internalNodes>
            0 -1 30 -2.4565106257796288e-02</internalNodes>
          <leafValues>
            3.6363637447357178e-01 -9.1463416814804077e-01</leafValues></_>
        <_>
          <internalNodes>
            0 -1 12 -5.5652353912591934e-02</internalNodes>
          <leafValues>
            7.2780823707580566e-01 -6.9622486829757690e-01</leafValues></_>
        <_>
          <internalNodes>
            0 -1 15 -4.4928709394298494e-04</internalNodes>
          <leafValues>
            3.7317654490470886e-01 -1.</leafValues></_></weakClassifiers></_>
    <!-- stage 4 -->
    <_>
      <maxWeakCount>3</maxWeakCount>
      <stageThreshold>-6.6726708412170410e-01</stageThreshold>
      <weakClassifiers>
        <_>
          <internalNodes>
            0 -1 33 -2.9012465849518776e-02</internalNodes>
          <leafValues>
            1. -8.5310733318328857e-01</leafValues></_>
        <_>
          <internalNodes>
            0 -1 13 -1.5236863493919373e-01</internalNodes>
          <leafValues>
            8.3355724811553955e-01 -7.0629936456680298e-01</leafValues></_>
        <_>
          <internalNodes>
            0 -1 42 -8.4569208323955536e-02</internalNodes>
          <leafValues>
            8.9213961362838745e-01 -5.2194422483444214e-01</leafValues></_></weakClassifiers></_>
    <!-- stage 5 -->
    <_>
      <maxWeakCount>3</maxWeakCount>
      <stageThreshold>-1.3720710277557373e+00</stageThreshold>
      <weakClassifiers>
        <_>
          <internalNodes>
            0 -1 40 -5.3818840533494949e-02</internalNodes>
          <leafValues>
            5.0000000000000000e-01 -8.8235294818878174e-01</leafValues></_>
        <_>
          <internalNodes>
            0 -1 20 -3.8745757192373276e-02</internalNodes>
          <leafValues>
            4.7146818041801453e-01 -7.9636168479919434e-01</leafValues></_>
        <_>
          <internalNodes>
            0 -1 7 -8.2582299364730716e-04</internalNodes>
          <leafValues>
            -1. 3.0664357542991638e-01</leafValues></_></weakClassifiers></_>
    <!-- stage 6 -->
    <_>
      <maxWeakCount>2</maxWeakCount>
      <stageThreshold>-6.4964497089385986e-01</stageThreshold>
      <weakClassifiers>
        <_>
          <internalNodes>
            0 -1 43 -3.9894338697195053e-02</internalNodes>
          <leafValues>
            6.0000002384185791e-01 -8.4090906381607056e-01</leafValues></_>
        <_>
          <internalNodes>
            0 -1 22 -7.3167693335562944e-04</internalNodes>
          <leafValues>
            -1. 1.9126413762569427e-01</leafValues></_></weakClassifiers></_>
    <!-- stage 7 -->
    <_>
      <maxWeakCount>3</maxWeakCount>
      <stageThreshold>-9.3015825748443604e-01</stageThreshold>
      <weakClassifiers>
        <_>
          <internalNodes>
            0 -1 3 -2.5078001618385315e-01</internalNodes>
          <leafValues>
            1. -8.3240222930908203e-01</leafValues></_>
        <_>
          <internalNodes>
            0 -1 23 3.7529654800891876e-02</internalNodes>
          <leafValues>
            -6.2632441520690918e-01 8.6748272180557251e-01</leafValues></_>
        <_>
          <internalNodes>
            0 -1 0 -2.5049632787704468e-01</internalNodes>
          <leafValues>
            5.2856838703155518e-01 -8.7091493606567383e-01</leafValues></_></weakClassifiers></_>
    <!-- stage 8 -->
    <_>
      <maxWeakCount>2</maxWeakCount>
      <stageThreshold>-6.2884742021560669e-01</stageThreshold>
      <weakClassifiers>
        <_>
          <internalNodes>
            0 -1 16 -1.7804233357310295e-02</internalNodes>
          <leafValues>
            1. -8.2222223281860352e-01</leafValues></_>
        <_>
          <internalNodes>
            0 -1 28 2.5844559786492027e-05</internalNodes>
          <leafValues>
            1.9337482750415802e-01 -1.</leafValues></_></weakClassifiers></_>
    <!-- stage 9 -->
    <_>
      <maxWeakCount>3</maxWeakCount>
      <stageThreshold>-1.3903914690017700e+00</stageThreshold>
      <weakClassifiers>
        <_>
          <internalNodes>
            0 -1 25 7.9291671514511108e-02</internalNodes>
          <leafValues>
            -8.5142856836318970e-01 6.3636362552642822e-01</leafValues></_>
        <_>
          <internalNodes>
            0 -1 2 -7.8094355762004852e-02</internalNodes>
          <leafValues>
            5.2335155010223389e-01 -8.1352055072784424e-01</leafValues></_>
        <_>
          <internalNodes>
            0 -1 8 -7.3511793743818998e-04</internalNodes>
          <leafValues>
            -1. 2.7455762028694153e-01</leafValues></_></weakClassifiers></_>
    <!-- stage 10 -->
    <_>
      <maxWeakCount>4</maxWeakCount>
      <stageThreshold>-1.0310319662094116e+00</stageThreshold>
      <weakClassifiers>
        <_>
          <internalNodes>
            0 -1 21 -1.0936757549643517e-02</internalNodes>
          <leafValues>
            1. -8.2222223281860352e-01</leafValues></_>
        <_>
          <internalNodes>
            0 -1 35 1.1921556433662772e-03</internalNodes>
          <leafValues>
            -9.1660153865814209e-01 2.6633617281913757e-01</leafValues></_>
        <_>
          <internalNodes>
            0 -1 9 -5.1537026592995971e-05</internalNodes>
          <leafValues>
            3.8423815369606018e-01 -8.9310503005981445e-01</leafValues></_>
        <_>
          <internalNodes>
            0 -1 32 7.2484261181671172e-05</internalNodes>
          <leafValues>
            -8.2764130830764771e-01 4.1795909404754639e-01</leafValues></_></weakClassifiers></_>
    <!-- stage 11 -->
    <_>
      <maxWeakCount>3</maxWeakCount>
      <stageThreshold>-1.1544716358184814e+00</stageThreshold>
      <weakClassifiers>
        <_>
          <internalNodes>
            0 -1 26 -2.8969366103410721e-02</internalNodes>
          <leafValues>
            1. -8.2222223281860352e-01</leafValues></_>
        <_>
          <internalNodes>
            0 -1 37 5.1922239363193512e-02</internalNodes>
          <leafValues>
            -7.5299960374832153e-01 5.7036852836608887e-01</leafValues></_>
        <_>
          <internalNodes>
            0 -1 27 6.8464316427707672e-05</internalNodes>
          <leafValues>
            -9.0261793136596680e-01 4.3006554245948792e-01</leafValues></_></weakClassifiers></_>
    <!-- stage 12 -->
    <_>
      <maxWeakCount>4</maxWeakCount>
      <stageThreshold>-1.1161396503448486e+00</stageThreshold>
      <weakClassifiers>
        <_>
          <internalNodes>
            0 -1 34 1.5820797532796860e-02</internalNodes>
          <leafValues>
            -8.3146065473556519e-01 7.5000000000000000e-01</leafValues></_>
        <_>
          <internalNodes>
            0 -1 5 -2.0136414095759392e-02</internalNodes>
          <leafValues>
            3.2413557171821594e-01 -7.5969773530960083e-01</leafValues></_>
        <_>
          <internalNodes>
            0 -1 10 1.8706113041844219e-04</internalNodes>
          <leafValues>
            2.4218024313449860e-01 -1.</leafValues></_>
        <_>
          <internalNodes>
            0 -1 14 -8.1358454190194607e-04</internalNodes>
          <leafValues>
            -1. 2.3283846676349640e-01</leafValues></_></weakClassifiers></_>
    <!-- stage 13 -->
    <_>
      <maxWeakCount>3</maxWeakCount>
      <stageThreshold>-1.4536283016204834e+00</stageThreshold>
      <weakClassifiers>
        <_>
          <internalNodes>
            0 -1 18 -5.7554624974727631e-02</internalNodes>
          <leafValues>
            1. -8.2222223281860352e-01</leafValues></_>
        <_>
          <internalNodes>
            0 -1 38 -8.8138936553150415e-04</internalNodes>
          <leafValues>
            -9.1792345046997070e-01 2.8732421994209290e-01</leafValues></_>
        <_>
          <internalNodes>
            0 -1 1 -7.7378645073622465e-05</internalNodes>
          <leafValues>
            -1. 2.8651738166809082e-01</leafValues></_></weakClassifiers></_>
    <!-- stage 14 -->
    <_>
      <maxWeakCount>3</maxWeakCount>
      <stageThreshold>-9.0845710039138794e-01</stageThreshold>
      <weakClassifiers>
        <_>
          <internalNodes>
            0 -1 41 -1.6349330544471741e-02</internalNodes>
          <leafValues>
            1. -8.3240222930908203e-01</leafValues></_>
        <_>
          <internalNodes>
            0 -1 36 4.2226959019899368e-02</internalNodes>
          <leafValues>
            -7.9524034261703491e-01 4.3448942899703979e-01</leafValues></_>
        <_>
          <internalNodes>
            0 -1 11 7.7801700681447983e-03</internalNodes>
          <leafValues>
            -5.1054430007934570e-01 7.5140130519866943e-01</leafValues></_></weakClassifiers></_></stages>
  <features>
    <_>
      <rects>
        <_>
          0 0 24 20 -1.</_>
        <_>
          0 10 24 10 2.</_></rects>
      <tilted>0</tilted></_>
    <_>
      <rects>
        <_>
          0 8 3 1 -1.</_>
        <_>
          1 8 1 1 3.</_></rects>
      <tilted>0</tilted></_>
    <_>
      <rects>
        <_>
          0 12 13 12 -1.</_>
        <_>
          0 18 13 6 2.</_></rects>
      <tilted>0</tilted></_>
    <_>
      <rects>
        <_>
          0 12 24 12 -1.</_>
        <_>
          0 18 24 6 2.</_></rects>
      <tilted>0</tilted></_>
    <_>
      <rects>
        <_>
          0 20 22 2 -1.</_>
        <_>
          0 21 22 1 2.</_></rects>
      <tilted>0</tilted></_>
    <_>
      <rects>
        <_>
          0 22 20 1 -1.</_>
        <_>
          10 22 10 1 2.</_></rects>
      <tilted>0</tilted></_>
    <_>
      <rects>
        <_>
          1 0 17 14 -1.</_>
        <_>
          1 7 17 7 2.</_></rects>
      <tilted>0</tilted></_>
    <_>
      <rects>
        <_>
          1 1 22 4 -1.</_>
        <_>
          1 1 11 2 2.</_>
        <_>
          12 3 11 2 2.</_></rects>
      <tilted>0</tilted></_>
    <_>
      <rects>
        <_>
          2 1 11 2 -1.</_>
        <_>
          2 2 11 1 2.</_></rects>
      <tilted>0</tilted></_>
    <_>
      <rects>
        <_>
          2 16 2 2 -1.</_>
        <_>
          2 17 2 1 2.</_></rects>
      <tilted>0</tilted></_>
    <_>
      <rects>
        <_>
          3 2 4 2 -1.</_>
        <_>
          3 2 2 1 2.</_>
        <_>
          5 3 2 1 2.</_></rects>
      <tilted>0</tilted></_>
    <_>
      <rects>
        <_>
          3 8 20 2 -1.</_>
        <_>
          3 8 10 1 2.</_>
        <_>
          13 9 10 1 2.</_></rects>
      <tilted>0</tilted></_>
    <_>
      <rects>
        <_>
          3 9 18 2 -1.</_>
        <_>
          9 9 6 2 3.</_></rects>
      <tilted>0</tilted></_>
    <_>
      <rects>
        <_>
          3 13 14 11 -1.</_>
        <_>
          10 13 7 11 2.</_></rects>
      <tilted>0</tilted></_>
    <_>
      <rects>
        <_>
          4 16 2 8 -1.</_>
        <_>
          5 16 1 8 2.</_></rects>
      <tilted>0</tilted></_>
    <_>
      <rects>
        <_>
          5 4 2 7 -1.</_>
        <_>
          6 4 1 7 2.</_></rects>
      <tilted>0</tilted></_>
    <_>
      <rects>
        <_>
          5 5 5 3 -1.</_>
        <_>
          5 6 5 1 3.</_></rects>
      <tilted>0</tilted></_>
    <_>
      <rects>
        <_>
          5 20 12 1 -1.</_>
        <_>
          11 20 6 1 2.</_></rects>
      <tilted>0</tilted></_>
    <_>
      <rects>
        <_>
          5 21 18 2 -1.</_>
        <_>
          14 21 9 2 2.</_></rects>
      <tilted>0</tilted></_>
    <_>
      <rects>
        <_>
          6 3 10 12 -1.</_>
        <_>
          6 7 10 4 3.</_></rects>
      <tilted>0</tilted></_>
    <_>
      <rects>
        <_>
          6 4 6 10 -1.</_>
        <_>
          6 9 6 5 2.</_></rects>
      <tilted>0</tilted></_>
    <_>
      <rects>
        <_>
          6 5 3 3 -1.</_>
        <_>
          6 6 3 1 3.</_></rects>
      <tilted>0</tilted></_>
    <_>
      <rects>
        <_>
          7 2 4 2 -1.</_>
        <_>
          7 3 4 1 2.</_></rects>
      <tilted>0</tilted></_>
    <_>
      <rects>
        <_>
          7 5 10 8 -1.</_>
        <_>
          7 5 5 4 2.</_>
        <_>
          12 9 5 4 2.</_></rects>
      <tilted>0</tilted></_>
    <_>
      <rects>
        <_>
          7 10 12 1 -1.</_>
        <_>
          11 10 4 1 3.</_></rects>
      <tilted>0</tilted></_>
    <_>
      <rects>
        <_>
          7 13 16 5 -1.</_>
        <_>
          15 13 8 5 2.</_></rects>
      <tilted>0</tilted></_>
    <_>
      <rects>
        <_>
          7 21 16 1 -1.</_>
        <_>
          15 21 8 1 2.</_></rects>
      <tilted>0</tilted></_>
    <_>
      <rects>
        <_>
          8 19 2 3 -1.</_>
        <_>
          8 20 2 1 3.</_></rects>
      <tilted>0</tilted></_>
    <_>
      <rects>
        <_>
          9 1 1 4 -1.</_>
        <_>
          9 3 1 2 2.</_></rects>
      <tilted>0</tilted></_>
    <_>
      <rects>
        <_>
          9 4 2 4 -1.</_>
        <_>
          9 6 2 2 2.</_></rects>
      <tilted>0</tilted></_>
    <_>
      <rects>
        <_>
          9 17 12 3 -1.</_>
        <_>
          13 17 4 3 3.</_></rects>
      <tilted>0</tilted></_>
    <_>
      <rects>
        <_>
          10 13 12 4 -1.</_>
        <_>
          14 13 4 4 3.</_></rects>
      <tilted>0</tilted></_>
    <_>
      <rects>
        <_>
          11 8 1 9 -1.</_>
        <_>
          11 11 1 3 3.</_></rects>
      <tilted>0</tilted></_>
    <_>
      <rects>
        <_>
          11 9 6 4 -1.</_>
        <_>
          13 9 2 4 3.</_></rects>
      <tilted>0</tilted></_>
    <_>
      <rects>
        <_>
          11 21 13 3 -1.</_>
        <_>
          11 22 13 1 3.</_></rects>
      <tilted>0</tilted></_>
    <_>
      <rects>
        <_>
          12 11 5 6 -1.</_>
        <_>
          12 13 5 2 3.</_></rects>
      <tilted>0</tilted></_>
    <_>
      <rects>
        <_>
          13 0 8 20 -1.</_>
        <_>
          13 0 4 10 2.</_>
        <_>
          17 10 4 10 2.</_></rects>
      <tilted>0</tilted></_>
    <_>
      <rects>
        <_>
          13 0 8 22 -1.</_>
        <_>
          13 0 4 11 2.</_>
        <_>
          17 11 4 11 2.</_></rects>
      <tilted>0</tilted></_>
    <_>
      <rects>
        <_>
          13 10 10 2 -1.</_>
        <_>
          13 11 10 1 2.</_></rects>
      <tilted>0</tilted></_>
    <_>
      <rects>
        <_>
          15 2 2 20 -1.</_>
        <_>
          15 12 2 10 2.</_></rects>
      <tilted>0</tilted></_>
    <_>
      <rects>
        <_>
          15 5 2 18 -1.</_>
        <_>
          15 14 2 9 2.</_></rects>
      <tilted>0</tilted></_>
    <_>
      <rects>
        <_>
          15 21 8 3 -1.</_>
        <_>
          15 22 8 1 3.</_></rects>
      <tilted>0</tilted></_>
    <_>
      <rects>
        <_>
          17 6 7 15 -1.</_>
        <_>
          17 11 7 5 3.</_></rects>
      <tilted>0</tilted></_>
    <_>
      <rects>
        <_>
          22 12 2 12 -1.</_>
        <_>
          22 18 2 6 2.</_></rects>
      <tilted>0</tilted></_></features></cascade>
</opencv_storage>
