<?xml version="1.0"?>
<opencv_storage>
<cascade>
  <stageType>BOOST</stageType>
  <featureType>HAAR</featureType>
  <height>24</height>
  <width>24</width>
  <stageParams>
    <boostType>GAB</boostType>
    <minHitRate>9.9500000476837158e-01</minHitRate>
    <maxFalseAlarm>5.0000000000000000e-01</maxFalseAlarm>
    <weightTrimRate>9.4999998807907104e-01</weightTrimRate>
    <maxDepth>1</maxDepth>
    <maxWeakCount>100</maxWeakCount></stageParams>
  <featureParams>
    <maxCatCount>0</maxCatCount>
    <featSize>1</featSize>
    <mode>BASIC</mode></featureParams>
  <stageNum>17</stageNum>
  <stages>
    <!-- stage 0 -->
    <_>
      <maxWeakCount>3</maxWeakCount>
      <stageThreshold>-1.2793369293212891e+00</stageThreshold>
      <weakClassifiers>
        <_>
          <internalNodes>
            0 -1 34 -2.7926266193389893e-02</internalNodes>
          <leafValues>
            1.4285714924335480e-01 -9.2405062913894653e-01</leafValues></_>
        <_>
          <internalNodes>
            0 -1 33 -2.3246664553880692e-02</internalNodes>
          <leafValues>
            7.4087184667587280e-01 -7.4738365411758423e-01</leafValues></_>
        <_>
          <internalNodes>
            0 -1 0 1.7209016950801015e-03</internalNodes>
          <leafValues>
            3.9209741353988647e-01 -1.</leafValues></_></weakClassifiers></_>
    <!-- stage 1 -->
    <_>
      <maxWeakCount>3</maxWeakCount>
      <stageThreshold>-9.8744976520538330e-01</stageThreshold>
      <weakClassifiers>
        <_>
          <internalNodes>
            0 -1 10 -1.0059767961502075e-01</internalNodes>
          <leafValues>
            1. -8.6363637447357178e-01</leafValues></_>
        <_>
          <internalNodes>
            0 -1 37 -1.3538019731640816e-02</internalNodes>
          <leafValues>
            7.5098407268524170e-01 -8.6546432971954346e-01</leafValues></_>
        <_>
          <internalNodes>
            0 -1 23 2.1065864711999893e-02</internalNodes>
          <leafValues>
            -7.4278140068054199e-01 7.4165099859237671e-01</leafValues></_></weakClassifiers></_>
    <!-- stage 2 -->
    <_>
      <maxWeakCount>3</maxWeakCount>
      <stageThreshold>-7.9919904470443726e-01</stageThreshold>
      <weakClassifiers>
        <_>
          <internalNodes>
            0 -1 2 -2.5143826007843018e-01</internalNodes>
          <leafValues>
            1. -8.5310733318328857e-01</leafValues></_>
        <_>
          <internalNodes>
            0 -1 18 -8.9051827788352966e-02</internalNodes>
          <leafValues>
            8.3355724811553955e-01 -7.0629936456680298e-01</leafValues></_>
        <_>
          <internalNodes>
            0 -1 19 5.6556716561317444e-02</internalNodes>
          <leafValues>
            -5.9304678440093994e-01 7.6020765304565430e-01</leafValues></_></weakClassifiers></_>
    <!-- stage 3 -->
    <_>
      <maxWeakCount>3</maxWeakCount>
      <stageThreshold>-1.1604303121566772e+00</stageThreshold>
      <weakClassifiers>
        <_>
          <internalNodes>
            0 -1 15 -7.9411357641220093e-02</internalNodes>
          <leafValues>
            1. -8.5310733318328857e-01</leafValues></_>
        <_>
          <internalNodes>
            0 -1 9 -3.3255594968795776e-01</internalNodes>
          <leafValues>
            7.5253057479858398e-01 -7.5387358665466309e-01</leafValues></_>
        <_>
          <internalNodes>
            0 -1 40 -3.3038272522389889e-04</internalNodes>
          <leafValues>
            -9.3683594465255737e-01 4.4655054807662964e-01</leafValues></_></weakClassifiers></_>
    <!-- stage 4 -->
    <_>
      <maxWeakCount>3</maxWeakCount>
      <stageThreshold>-9.5711767673492432e-01</stageThreshold>
      <weakClassifiers>
        <_>
          <internalNodes>
            0 -1 6 -1.1392627656459808e-01</internalNodes>
          <leafValues>
            1. -8.3240222930908203e-01</leafValues></_>
        <_>
          <internalNodes>
            0 -1 21 -3.5990953445434570e-02</internalNodes>
          <leafValues>
            8.2712841033935547e-01 -6.2442749738693237e-01</leafValues></_>
        <_>
          <internalNodes>
            0 -1 24 -1.5915137482807040e-03</internalNodes>
          <leafValues>
            4.9971207976341248e-01 -8.8410288095474243e-01</leafValues></_></weakClassifiers></_>
    <!-- stage 5 -->
    <_>
      <maxWeakCount>2</maxWeakCount>
      <stageThreshold>-8.5253733396530151e-01</stageThreshold>
      <weakClassifiers>
        <_>
          <internalNodes>
            0 -1 3 -1.0434503853321075e-01</internalNodes>
          <leafValues>
            6.0000002384185791e-01 -8.8304096460342407e-01</leafValues></_>
        <_>
          <internalNodes>
            0 -1 46 -1.7952280177269131e-04</internalNodes>
          <leafValues>
            -1. 3.0503610149025917e-02</leafValues></_></weakClassifiers></_>
    <!-- stage 6 -->
    <_>
      <maxWeakCount>2</maxWeakCount>
      <stageThreshold>-7.1997964382171631e-01</stageThreshold>
      <weakClassifiers>
        <_>
          <internalNodes>
            0 -1 7 -1.2685576081275940e-01</internalNodes>
          <leafValues>
            6.0000002384185791e-01 -8.4090906381607056e-01</leafValues></_>
        <_>
          <internalNodes>
            0 -1 49 4.8342920490540564e-04</internalNodes>
          <leafValues>
            1.2092945724725723e-01 -1.</leafValues></_></weakClassifiers></_>
    <!-- stage 7 -->
    <_>
      <maxWeakCount>4</maxWeakCount>
      <stageThreshold>-9.0766799449920654e-01</stageThreshold>
      <weakClassifiers>
        <_>
          <internalNodes>
            0 -1 41 1.5114913694560528e-02</internalNodes>
          <leafValues>
            -8.5882353782653809e-01 2.5000000000000000e-01</leafValues></_>
        <_>
          <internalNodes>
            0 -1 20 -9.8791409982368350e-05</internalNodes>
          <leafValues>
            2.2544957697391510e-01 -8.6538845300674438e-01</leafValues></_>
        <_>
          <internalNodes>
            0 -1 22 1.0292190127074718e-03</internalNodes>
          <leafValues>
            -8.3370178937911987e-01 3.9381104707717896e-01</leafValues></_>
        <_>
          <internalNodes>
            0 -1 44 3.5444539389573038e-04</internalNodes>
          <leafValues>
            -6.6810506582260132e-01 5.8946603536605835e-01</leafValues></_></weakClassifiers></_>
    <!-- stage 8 -->
    <_>
      <maxWeakCount>4</maxWeakCount>
      <stageThreshold>-1.2284992933273315e+00</stageThreshold>
      <weakClassifiers>
        <_>
          <internalNodes>
            0 -1 27 3.6035217344760895e-02</internalNodes>
          <leafValues>
            -8.2222223281860352e-01 1.</leafValues></_>
        <_>
          <internalNodes>
            0 -1 14 3.4137477632611990e-04</internalNodes>
          <leafValues>
            -9.1085875034332275e-01 1.8880853056907654e-01</leafValues></_>
        <_>
          <internalNodes>
            0 -1 13 1.9891391275450587e-04</internalNodes>
          <leafValues>
            2.4871554970741272e-01 -1.</leafValues></_>
        <_>
          <internalNodes>
            0 -1 11 -1.1520381085574627e-03</internalNodes>
          <leafValues>
            -1. 2.5586614012718201e-01</leafValues></_></weakClassifiers></_>
    <!-- stage 9 -->
    <_>
      <maxWeakCount>2</maxWeakCount>
      <stageThreshold>-6.1618304252624512e-01</stageThreshold>
      <weakClassifiers>
        <_>
          <internalNodes>
            0 -1 12 -6.2337715178728104e-02</internalNodes>
          <leafValues>
            1. -8.1215471029281616e-01</leafValues></_>
        <_>
          <internalNodes>
            0 -1 47 -6.0169499192852527e-05</internalNodes>
          <leafValues>
            1.9597166776657104e-01 -1.</leafValues></_></weakClassifiers></_>
    <!-- stage 10 -->
    <_>
      <maxWeakCount>3</maxWeakCount>
      <stageThreshold>-1.4230511188507080e+00</stageThreshold>
      <weakClassifiers>
        <_>
          <internalNodes>
            0 -1 29 -1.0679118335247040e-02</internalNodes>
          <leafValues>
            1. -8.1215471029281616e-01</leafValues></_>
        <_>
          <internalNodes>
            0 -1 17 7.9007026215549558e-05</internalNodes>
          <leafValues>
            -9.1255795955657959e-01 2.1012593805789948e-01</leafValues></_>
        <_>
          <internalNodes>
            0 -1 16 -1.0902291978709400e-04</internalNodes>
          <leafValues>
            -9.1957211494445801e-01 3.0166161060333252e-01</leafValues></_></weakClassifiers></_>
    <!-- stage 11 -->
    <_>
      <maxWeakCount>4</maxWeakCount>
      <stageThreshold>-1.1061040163040161e+00</stageThreshold>
      <weakClassifiers>
        <_>
          <internalNodes>
            0 -1 30 8.0422069877386093e-03</internalNodes>
          <leafValues>
            -8.2222223281860352e-01 1.</leafValues></_>
        <_>
          <internalNodes>
            0 -1 42 -2.2928384714759886e-04</internalNodes>
          <leafValues>
            -9.1726779937744141e-01 2.7674394845962524e-01</leafValues></_>
        <_>
          <internalNodes>
            0 -1 4 1.0731930524343625e-04</internalNodes>
          <leafValues>
            -8.9072853326797485e-01 3.5811614990234375e-01</leafValues></_>
        <_>
          <internalNodes>
            0 -1 39 -1.6243834397755563e-04</internalNodes>
          <leafValues>
            -8.9697206020355225e-01 3.3010283112525940e-01</leafValues></_></weakClassifiers></_>
    <!-- stage 12 -->
    <_>
      <maxWeakCount>3</maxWeakCount>
      <stageThreshold>-1.2690731287002563e+00</stageThreshold>
      <weakClassifiers>
        <_>
          <internalNodes>
            0 -1 38 -1.2843605875968933e-01</internalNodes>
          <leafValues>
            1. -8.2222223281860352e-01</leafValues></_>
        <_>
          <internalNodes>
            0 -1 17 2.8603040846064687e-04</internalNodes>
          <leafValues>
            -8.4697771072387695e-01 3.0040985345840454e-01</leafValues></_>
        <_>
          <internalNodes>
            0 -1 1 -8.4133505821228027e-02</internalNodes>
          <leafValues>
            4.0012675523757935e-01 -7.4477642774581909e-01</leafValues></_></weakClassifiers></_>
    <!-- stage 13 -->
    <_>
      <maxWeakCount>4</maxWeakCount>
      <stageThreshold>-8.4175992012023926e-01</stageThreshold>
      <weakClassifiers>
        <_>
          <internalNodes>
            0 -1 43 -7.1418983861804008e-03</internalNodes>
          <leafValues>
            1. -8.1215471029281616e-01</leafValues></_>
        <_>
          <internalNodes>
            0 -1 50 8.7847802788019180e-03</internalNodes>
          <leafValues>
            -7.4024701118469238e-01 4.0408965945243835e-01</leafValues></_>
        <_>
          <internalNodes>
            0 -1 45 6.0647609643638134e-04</internalNodes>
          <leafValues>
            3.5437300801277161e-01 -8.9794361591339111e-01</leafValues></_>
        <_>
          <internalNodes>
            0 -1 48 2.8657013899646699e-05</internalNodes>
          <leafValues>
            -7.1688312292098999e-01 4.6424868702888489e-01</leafValues></_></weakClassifiers></_>
    <!-- stage 14 -->
    <_>
      <maxWeakCount>3</maxWeakCount>
      <stageThreshold>-9.8158454895019531e-01</stageThreshold>
      <weakClassifiers>
        <_>
          <internalNodes>
            0 -1 31 -1.5552952885627747e-01</internalNodes>
          <leafValues>
            1. -8.3240222930908203e-01</leafValues></_>
        <_>
          <internalNodes>
            0 -1 28 4.7158356755971909e-02</internalNodes>
          <leafValues>
            -7.8840833902359009e-01 3.5770952701568604e-01</leafValues></_>
        <_>
          <internalNodes>
            0 -1 35 -4.2139999568462372e-03</internalNodes>
          <leafValues>
            6.4935153722763062e-01 -5.0689184665679932e-01</leafValues></_></weakClassifiers></_>
    <!-- stage 15 -->
    <_>
      <maxWeakCount>4</maxWeakCount>
      <stageThreshold>-1.1958503723144531e+00</stageThreshold>
      <weakClassifiers>
        <_>
          <internalNodes>
            0 -1 32 -1.6924875974655151e-01</internalNodes>
          <leafValues>
            5.5555558204650879e-01 -8.3050847053527832e-01</leafValues></_>
        <_>
          <internalNodes>
            0 -1 13 -1.4581911091227084e-04</internalNodes>
          <leafValues>
            -9.0703636407852173e-01 1.4435875415802002e-01</leafValues></_>
        <_>
          <internalNodes>
            0 -1 25 3.8058508653193712e-04</internalNodes>
          <leafValues>
            3.5799157619476318e-01 -7.9416286945343018e-01</leafValues></_>
        <_>
          <internalNodes>
            0 -1 8 -5.4473195632454008e-05</internalNodes>
          <leafValues>
            -8.6769223213195801e-01 3.8226160407066345e-01</leafValues></_></weakClassifiers></_>
    <!-- stage 16 -->
    <_>
      <maxWeakCount>3</maxWeakCount>
      <stageThreshold>-1.1922372579574585e+00</stageThreshold>
      <weakClassifiers>
        <_>
          <internalNodes>
            0 -1 26 9.9468883126974106e-03</internalNodes>
          <leafValues>
            -8.3999997377395630e-01 4.5454546809196472e-01</leafValues></_>
        <_>
          <internalNodes>
            0 -1 5 4.7741867601871490e-03</internalNodes>
          <leafValues>
            -7.0238929986953735e-01 4.8460817337036133e-01</leafValues></_>
        <_>
          <internalNodes>
            0 -1 36 -7.6907947659492493e-02</internalNodes>
          <leafValues>
            3.7548667192459106e-01 -8.3684545755386353e-01</leafValues></_></weakClassifiers></_></stages>
  <features>
    <_>
      <rects>
        <_>
          0 1 2 20 -1.</_>
        <_>
          0 11 2 10 2.</_></rects>
      <tilted>0</tilted></_>
    <_>
      <rects>
        <_>
          0 7 20 11 -1.</_>
        <_>
          10 7 10 11 2.</_></rects>
      <tilted>0</tilted></_>
    <_>
      <rects>
        <_>
          0 7 22 15 -1.</_>
        <_>
          0 12 22 5 3.</_></rects>
      <tilted>0</tilted></_>
    <_>
      <rects>
        <_>
          0 12 18 6 -1.</_>
        <_>
          6 12 6 6 3.</_></rects>
      <tilted>0</tilted></_>
    <_>
      <rects>
        <_>
          1 0 5 6 -1.</_>
        <_>
          1 2 5 2 3.</_></rects>
      <tilted>0</tilted></_>
    <_>
      <rects>
        <_>
          1 5 12 10 -1.</_>
        <_>
          1 5 6 5 2.</_>
        <_>
          7 10 6 5 2.</_></rects>
      <tilted>0</tilted></_>
    <_>
      <rects>
        <_>
          1 7 12 7 -1.</_>
        <_>
          7 7 6 7 2.</_></rects>
      <tilted>0</tilted></_>
    <_>
      <rects>
        <_>
          1 10 15 10 -1.</_>
        <_>
          6 10 5 10 3.</_></rects>
      <tilted>0</tilted></_>
    <_>
      <rects>
        <_>
          2 2 12 2 -1.</_>
        <_>
          6 2 4 2 3.</_></rects>
      <tilted>0</tilted></_>
    <_>
      <rects>
        <_>
          2 2 22 20 -1.</_>
        <_>
          13 2 11 20 2.</_></rects>
      <tilted>0</tilted></_>
    <_>
      <rects>
        <_>
          3 10 10 10 -1.</_>
        <_>
          8 10 5 10 2.</_></rects>
      <tilted>0</tilted></_>
    <_>
      <rects>
        <_>
          4 2 12 2 -1.</_>
        <_>
          8 2 4 2 3.</_></rects>
      <tilted>0</tilted></_>
    <_>
      <rects>
        <_>
          4 6 6 13 -1.</_>
        <_>
          6 6 2 13 3.</_></rects>
      <tilted>0</tilted></_>
    <_>
      <rects>
        <_>
          4 9 1 3 -1.</_>
        <_>
          4 10 1 1 3.</_></rects>
      <tilted>0</tilted></_>
    <_>
      <rects>
        <_>
          4 11 8 2 -1.</_>
        <_>
          4 11 4 1 2.</_>
        <_>
          8 12 4 1 2.</_></rects>
      <tilted>0</tilted></_>
    <_>
      <rects>
        <_>
          4 11 15 4 -1.</_>
        <_>
          9 11 5 4 3.</_></rects>
      <tilted>0</tilted></_>
    <_>
      <rects>
        <_>
          5 1 16 2 -1.</_>
        <_>
          5 1 8 1 2.</_>
        <_>
          13 2 8 1 2.</_></rects>
      <tilted>0</tilted></_>
    <_>
      <rects>
        <_>
          5 11 6 2 -1.</_>
        <_>
          5 11 3 1 2.</_>
        <_>
          8 12 3 1 2.</_></rects>
      <tilted>0</tilted></_>
    <_>
      <rects>
        <_>
          6 2 11 10 -1.</_>
        <_>
          6 7 11 5 2.</_></rects>
      <tilted>0</tilted></_>
    <_>
      <rects>
        <_>
          6 3 15 12 -1.</_>
        <_>
          6 7 15 4 3.</_></rects>
      <tilted>0</tilted></_>
    <_>
      <rects>
        <_>
          6 4 2 5 -1.</_>
        <_>
          7 4 1 5 2.</_></rects>
      <tilted>0</tilted></_>
    <_>
      <rects>
        <_>
          7 2 1 20 -1.</_>
        <_>
          7 12 1 10 2.</_></rects>
      <tilted>0</tilted></_>
    <_>
      <rects>
        <_>
          7 4 9 3 -1.</_>
        <_>
          10 4 3 3 3.</_></rects>
      <tilted>0</tilted></_>
    <_>
      <rects>
        <_>
          7 9 13 6 -1.</_>
        <_>
          7 11 13 2 3.</_></rects>
      <tilted>0</tilted></_>
    <_>
      <rects>
        <_>
          7 19 10 3 -1.</_>
        <_>
          12 19 5 3 2.</_></rects>
      <tilted>0</tilted></_>
    <_>
      <rects>
        <_>
          8 1 10 2 -1.</_>
        <_>
          8 1 5 1 2.</_>
        <_>
          13 2 5 1 2.</_></rects>
      <tilted>0</tilted></_>
    <_>
      <rects>
        <_>
          8 16 14 3 -1.</_>
        <_>
          8 17 14 1 3.</_></rects>
      <tilted>0</tilted></_>
    <_>
      <rects>
        <_>
          9 6 6 8 -1.</_>
        <_>
          9 6 3 4 2.</_>
        <_>
          12 10 3 4 2.</_></rects>
      <tilted>0</tilted></_>
    <_>
      <rects>
        <_>
          9 8 10 12 -1.</_>
        <_>
          14 8 5 12 2.</_></rects>
      <tilted>0</tilted></_>
    <_>
      <rects>
        <_>
          9 11 3 3 -1.</_>
        <_>
          10 11 1 3 3.</_></rects>
      <tilted>0</tilted></_>
    <_>
      <rects>
        <_>
          9 22 5 2 -1.</_>
        <_>
          9 23 5 1 2.</_></rects>
      <tilted>0</tilted></_>
    <_>
      <rects>
        <_>
          10 4 12 14 -1.</_>
        <_>
          16 4 6 14 2.</_></rects>
      <tilted>0</tilted></_>
    <_>
      <rects>
        <_>
          10 4 12 15 -1.</_>
        <_>
          16 4 6 15 2.</_></rects>
      <tilted>0</tilted></_>
    <_>
      <rects>
        <_>
          10 5 13 4 -1.</_>
        <_>
          10 7 13 2 2.</_></rects>
      <tilted>0</tilted></_>
    <_>
      <rects>
        <_>
          11 6 2 12 -1.</_>
        <_>
          11 12 2 6 2.</_></rects>
      <tilted>0</tilted></_>
    <_>
      <rects>
        <_>
          11 10 9 2 -1.</_>
        <_>
          14 10 3 2 3.</_></rects>
      <tilted>0</tilted></_>
    <_>
      <rects>
        <_>
          12 0 11 22 -1.</_>
        <_>
          12 11 11 11 2.</_></rects>
      <tilted>0</tilted></_>
    <_>
      <rects>
        <_>
          12 8 1 10 -1.</_>
        <_>
          12 13 1 5 2.</_></rects>
      <tilted>0</tilted></_>
    <_>
      <rects>
        <_>
          12 15 12 8 -1.</_>
        <_>
          12 19 12 4 2.</_></rects>
      <tilted>0</tilted></_>
    <_>
      <rects>
        <_>
          12 18 6 1 -1.</_>
        <_>
          14 18 2 1 3.</_></rects>
      <tilted>0</tilted></_>
    <_>
      <rects>
        <_>
          13 1 11 2 -1.</_>
        <_>
          13 2 11 1 2.</_></rects>
      <tilted>0</tilted></_>
    <_>
      <rects>
        <_>
          13 16 5 6 -1.</_>
        <_>
          13 18 5 2 3.</_></rects>
      <tilted>0</tilted></_>
    <_>
      <rects>
        <_>
          13 17 10 6 -1.</_>
        <_>
          13 19 10 2 3.</_></rects>
      <tilted>0</tilted></_>
    <_>
      <rects>
        <_>
          15 10 3 2 -1.</_>
        <_>
          16 10 1 2 3.</_></rects>
      <tilted>0</tilted></_>
    <_>
      <rects>
        <_>
          16 13 8 3 -1.</_>
        <_>
          16 14 8 1 3.</_></rects>
      <tilted>0</tilted></_>
    <_>
      <rects>
        <_>
          16 18 8 2 -1.</_>
        <_>
          16 18 4 1 2.</_>
        <_>
          20 19 4 1 2.</_></rects>
      <tilted>0</tilted></_>
    <_>
      <rects>
        <_>
          17 0 5 3 -1.</_>
        <_>
          17 1 5 1 3.</_></rects>
      <tilted>0</tilted></_>
    <_>
      <rects>
        <_>
          17 18 3 2 -1.</_>
        <_>
          17 19 3 1 2.</_></rects>
      <tilted>0</tilted></_>
    <_>
      <rects>
        <_>
          18 0 3 1 -1.</_>
        <_>
          19 0 1 1 3.</_></rects>
      <tilted>0</tilted></_>
    <_>
      <rects>
        <_>
          18 0 3 3 -1.</_>
        <_>
          18 1 3 1 3.</_></rects>
      <tilted>0</tilted></_>
    <_>
      <rects>
        <_>
          19 16 4 6 -1.</_>
        <_>
          19 18 4 2 3.</_></rects>
      <tilted>0</tilted></_></features></cascade>
</opencv_storage>
